-0.40003774
0.49874562
0.17543188
-0.28906813
0.9551844
-0.15595642
-1.2177396
0.50270462
0.55885494
0.025414132
-0.57330328
0.0043592472
-0.050091948
-0.14710197
0.12621963
-0.23447481
-1.1608902
-0.10458498
-0.36613792
-0.087577775
-0.64630264
0.30623162
-1.0667131
-0.70482516
-0.047570303
-0.72086591
-0.78849149
0.30156514
0.60992283
-0.36109728
-1.7871037
0.0055974373
-2.4970336
1.0762312
-1.7242491
0.46934482
-0.96316242
-0.59362394
-0.56886977
-0.19255833
-0.83189023
1.3056539
-0.54401678
-0.16768658
-0.80818349
-0.15301657
0.70097131
-0.10056991
-0.55276924
-0.82566178
0.72216761
-0.3916927
-0.15146922
-1.2886314
-0.0474822
-0.65806252
-0.12904386
-0.62159276
-0.0061408202
-1.2939911
-1.521829
0.17881526
0.90786475
0.87809873
-0.24925609
-0.06306497
-0.57251346
-0.86720622
0.26986948
0.34809798
0.33514419
-0.93752217
0.30351436
-0.33416358
0.087544233
0.19529045
0.11804527
0.0059390129
0.91090083
0.58796471
-0.22458671
0.40279123
-0.57728845
-0.012476816
0.21858136
-0.46365654
0.41217718
-1.0782417
0.22369872
-0.56266373
-0.58615565
0.79874909
1.5111288
-2.5237525
-3.7131884
-0.012456426
-1.9009361
-0.96762455
0.77678269
1.1854048
-0.51486939
0.29007238
1.2075166
0.56415927
0.63290459
0.65412152
0.098437279
0.60535985
0.41541708
0.40627673
0.27011877
0.68752772
0.73569119
-0.10107771
-0.43386087
0.2442838
-0.28238407
0.41888133
0.52311295
-0.21701989
0.015398621
-0.39371493
0.1543206
-1.7624266
-0.33842164
-2.5232534
2.8369412
-0.20621827
-0.46627876
-0.31502956
0.99114072
-0.23392189
0.51198417
-0.30693582
0.17167814
-0.1192289
0.36468238
-0.64070874
0.35318023
0.10363604
0.16643319
-0.11177129
-0.30985773
0.16159439
-0.22621469
-0.0019149166
-0.1175546
-0.13964739
-0.18097566
0.63522375
-0.78926772
-0.22354163
-0.55531633
0.61366302
-0.58975339
0.094073609
-0.0068808855
0.2205537
-0.71673703
-0.0048466213
2.1412971
-2.4323258
-1.0294542
0.067200601
0.94314283
-1.6032814
0.32954931
-0.015270508
-0.72069532
-0.4466109
0.71361607
-5.9892113e-06
-1.0429392
0.62758976
-0.026128391
-0.15756498
-0.29308042
-0.2398688
0.044056483
-0.39765251
-0.31631279
0.092976399
0.096970953
-0.40816447
-0.16974005
-0.18734315
0.12286016
-0.45942172
-0.81837881
0.25248358
-1.0168421
-0.32825625
-0.29343495
-0.52109116
-0.0028311994
-0.12092796
-0.21917923
-0.27619979
-0.21085407
-0.22361328
-0.21680523
-0.47635931
-0.16557907
-0.27184772
-0.10007107
-0.18865925
-0.71580726
-0.066932909
0.267032
-0.75444412
-0.87268478
0.048229191
0.37503666
-0.8931461
-1.0626991
-0.13295567
0.85871243
-0.64017719
-1.1139164
0.034734067
-1.0222828
1.8302021
-0.64340764
0.008570862
-0.33817863
0.67037266
-0.43310872
-0.013441659
0.28147435
-0.13667515
-0.80221468
0.082060091
0.039545137
-0.65790331
-0.66482323
0.11741941
-0.077584796
-0.33419818
-0.46848246
-0.19356066
-0.20790319
0.1352203
-0.56852061
-0.30063036
0.16205646
-0.18733221
-0.22270596
-0.17472431
-0.57673919
0.16163167
0.21972948
0.13914077
-1.0239756
-0.082325526
-0.53630602
1.1483127
-0.14454605
-0.41858894
0.15094274
-0.1989193
-0.30561221
-0.1066246
-0.039430872
-0.15725942
-0.17762887
0.021248888
-0.27659142
-0.12501484
-0.13036974
-0.039800819
-0.35606617
-0.065769747
0.48066139
-0.38711739
-0.60727572
-0.012425351
0.39353228
-0.6089589
-0.45926869
-0.040997796
0.2671487
-0.32375911
-0.37584081
-0.057098392
-0.79532695
0.83660036
-0.12475211
-0.012883253
-0.12626335
0.33036318
-0.26969087
-0.063143574
-0.19356583
0.079656988
-0.031862669
0.0052366643
-0.061537184
-0.41434893
-0.017321113
0.058113426
0.047346268
-0.27761385
-0.12402147
-0.10320174
-0.064062223
0.0069291843
-0.46486902
-0.065552518
-0.068920858
-0.066108979
-0.15618679
-0.084237128
-0.18219911
0.013545281
-0.072080463
-0.063807942
-0.39643112
-0.46943617
-0.23412132
-0.16148286
-0.31675836
-0.84593481
0.14939217
0.23276989
-0.57260191
-0.24450888
0.19915408
0.047694024
-0.29990587
-0.008444665
-0.36676505
-0.43536535
-0.11840659
0.07471253
-0.50175482
-0.47074768
0.020708991
0.0071607213
-0.2337099
-0.57038391
-0.28417301
-0.95082855
-0.76760882
-0.050046623
-0.93604732
-0.5080052
0.13877657
-0.3108561
-1.238458
-0.6790545
1.1135464
0.013244937
-1.971068
1.4004912
-0.31989551
-0.16215304
-1.7135484
1.461642
1.0719713
-0.20351754
-1.1330581
-0.28990853
1.386026
-0.26650435
-0.2348825
-1.0583163
0.45783284
-0.23775759
-0.43251377
-1.2961746
0.38486919
-0.088230766
-0.76212722
-0.60024393
-0.30345175
-0.2998094
-0.41314751
-1.0748994
-0.31671619
-0.40741834
0.065921485
-2.8588631
1.4091953
1.1501561
0.19649339
-0.088325225
-0.96504653
-0.57584226
-0.23615903
-0.37682036
-0.044239584
-0.41428465
0.15904365
-0.080794536
-0.10464378
0.10071997
0.069926381
-0.33246064
-0.17981851
0.12243857
0.46218956
-0.1443373
-0.71723706
0.11874616
0.12456158
0.20420305
-0.17006108
-0.065211311
0.31727695
0.027898164
-0.14391638
-0.043189589
-0.1975356
0.31963518
-0.46380559
-0.006607261
0.023571353
0.15051357
-0.74685585
0.029945856
0.33095214
0.51987487
-0.18631682
-0.41456607
0.28471747
-0.19285884
0.53270376
-0.29239851
-0.16473034
-0.019907281
0.545533
-0.1908963
-0.056194421
-0.13799539
-0.23138809
0.075756766
-0.31782591
-0.71975404
-0.31853017
-0.018178092
-0.43586019
-0.29314083
-0.084544212
-0.35647008
0.73286754
-2.1761341
-0.44649544
-3.8393142
-0.31890038
-0.15065576
0.31871435
-0.61476701
-0.30365524
-0.45545638
-0.17847483
-0.093227968
0.075925924
-0.52751565
-0.56237608
0.11199354
-0.14127788
-0.38550386
0.072786286
0.35838193
-0.20938703
-1.1525761
1.7314918
0.11579064
-0.81839168
-0.71089554
1.1436355
-0.15162873
-0.38375241
1.1147566
-1.6172508
0.021929676
-0.41182891
0.97170961
-2.4818108
-0.0083608879
-0.44553033
-0.48327169
-0.83410162
0.15168603
-0.24526751
-0.73395777
-0.026751989
-0.29692638
0.031034606
-0.79041064
0.74761373
-0.24390511
-0.054792713
-0.34653211
0.57787633
-0.097048856
0.085960791
-0.11414703
-0.17430997
0.084851705
-0.12631723
-0.32316273
-0.22654597
-0.1239351
-0.53594166
-0.25760096
0.19467227
-0.24245565
0.03149109
-1.0309068
0.24709599
0.21456239
-0.1251826
-0.46325678
-0.2668488
-0.30113193
0.079803891
-0.46002051
-0.44022369
-0.14537214
-0.032598343
-0.54175043
-0.51357156
-0.17789412
-0.37053984
-0.15110016
-0.11798516
-0.88455898
-0.14286396
-0.045519408
0.10290521
0.026792884
0.10572346
0.59846282
0.56143671
0.15586929
0.84036535
-0.18681657
0.10881998
-0.13509516
0.74024254
-0.49517298
-0.0878141
0.01313147
-2.5378473
1.192649
-0.25200933
-0.1766247
-1.5062492
0.024620118
0.065691821
-0.15182796
-1.20761
0.38149512
-0.49235249
-0.24048927
-0.67643839
0.57620078
0.045379121
-0.24571548
0.00081211975
0.19611585
0.25213411
-0.047644611
0.19907957
0.61882156
0.68860614
0.15905024
0.30217564
0.7143532
0.23345523
0.48449749
0.40212882
2.4089954
-1.690425
-0.71953315
0.079678133
-0.71533972
-0.33581683
-0.58431304
-0.023044854
0.139984
0.072366588
0.24834003
-0.19301848
-0.37323472
0.17730862
0.33161119
0.28646603
0.84613264
-0.033690613
0.027290991
0.19339004
0.32051519
0.10474376
-0.010215919
-0.091138646
-0.28571022
0.14705713
0.21229953
-0.88717932
-0.60269713
-0.092112966
0.35307488
0.98064685
-2.3691173
-0.22430053
-0.0054187491
-2.003336
1.6059505
-2.0282137
0.2369535
-0.5114457
2.0418124
-4.4006433
0.17695445
0.080602556
0.32435817
-3.1010816
0.1944893
-0.080701619
0.097192794
-2.0723643
0.11852539
-0.38127971
-1.2335064
-0.57616383
0.066446804
0.017387943
0.069538586
-0.9780848
0.27256632
0.33267844
0.62409312
-0.20822126
0.10614109
-0.9374541
0.80152863
-2.4989686
0.48950872
0.1891304
0.079894327
0.51640022
-0.55297279
0.21310559
-0.43928158
0.098228052
-0.20922692
0.40911368
0.17613401
-0.072658986
-0.34912884
-0.3613776
-0.54668587
-0.14341931
-0.26136792
-1.2848086
0.65512478
-0.55650687
0.10746042
0.17981441
-0.25209075
0.24660271
0.34403327
0.82623988
-0.88664645
-0.13660869
-0.17249812
0.30482575
-0.076564923
-0.94097173
0.0074506081
-1.3661232
1.7870926
-1.3786403
-0.23581764
-1.9720446
1.7559483
-1.5930859
-0.097268276
1.6686749
-2.4808316
0.59889877
-0.36019409
0.61453789
-2.4614077
1.1251793
-0.021013932
0.43702033
-0.98471391
-0.056202471
0.61436623
-0.2031454
-0.72439611
0.15734492
-0.082597345
-0.41576877
-0.43941137
0.13642932
-0.92542088
0.085986778
-1.1883963
1.3229617
0.034888003
-0.01008998
-0.52526361
0.070301011
0.014386222
-0.31527472
-0.44436687
0.29892278
-0.069932505
0.029332237
-0.24472046
-0.17097831
0.051880643
-0.1467087
-0.0961916
-0.18599486
0.15930165
0.082610324
-0.20401649
0.08184962
0.14781304
-0.22271422
-0.44818202
0.28734583
0.03444444
0.3261576
-0.46650529
-0.12196366
0.057099923
-0.33764464
0.32684502
-0.37395951
-0.00089112308
0.70507371
-0.34473386
-0.61986476
0.089406461
0.60098767
-0.58649623
-0.13633582
-0.084172457
-0.085379623
-0.80335093
0.57058758
-0.058219656
-0.34665468
-0.70111024
0.78445601
-0.09128882
-0.16870837
-0.23300502
-0.2937156
0.032827944
-0.11383536
0.025372677
-0.564026
-0.035716012
0.029201824
0.28953838
-0.57631075
-0.10805385
0.16889091
-1.0814347
-0.015916554
-1.0846798
-0.13142347
1.0107706
0.12406276
-0.45588505
-0.75994921
-0.10882622
0.22041874
-0.022680312
-0.175006
-1.5093331
-0.51638323
-0.032371316
0.20116262
-2.879297
0.24427992
0.52083486
1.2617546
-3.5993104
1.632374
0.77633619
0.032698151
0.92647392
0.94278914
0.21230337
-0.99501276
2.5522404
-0.12089636
0.21342136
-0.27529794
0.88479459
-1.7302912
-0.012056176
-0.16523767
0.68190217
0.07324709
0.17421789
-0.26515275
-0.47738299
0.6628738
-0.049299084
0.35111511
-1.2703658
0.7205261
0.24627703
-0.37134412
-0.19357219
0.59747708
-0.14161925
0.59421545
0.47228795
0.12538844
0.065039657
0.49566162
0.47966883
-0.15056066
0.13724183
-0.42064002
-0.40124714
0.48388463
-0.21738085
-0.64000589
-3.0509217
3.5199888
-0.35972947
-0.31036299
0.2757346
0.14479131
-0.56066138
-0.1346904
-0.25251701
0.41349798
-0.32726645
-0.17980261
0.43907532
-0.61553407
-0.29167786
-0.25030485
0.32686171
0.11097795
-0.57244319
-0.25092223
-0.35921654
-0.19728178
-0.50896519
-0.39797091
0.59643805
-1.3359483
-0.17182995
-0.56097031
-0.90032876
-0.65471685
0.29558057
1.0022292
-3.3847058
-0.078396328
-0.0079590138
-1.3470972
1.5997458
-0.4774344
0.2728034
-0.11311547
-0.62407511
0.034037445
-0.0056479271
0.083376065
0.37446675
-0.70305884
-0.14314242
-0.20169163
0.19166318
-0.10987827
-0.10747541
0.18977551
0.51073301
-0.03303149
-0.37991214
-0.26192543
0.96852976
-0.034626912
-0.61288196
-0.32978413
0.52363557
0.19551507
-0.96901488
0.42092273
-0.34905747
-1.3732553
-2.0695946
0.032666184
0.4976047
0.53618699
-0.27730149
-0.11818913
0.30035001
-0.0024964204
0.10316133
-0.6078701
0.56116408
-0.14464273
0.38729712
-0.91708529
-0.083625495
-0.10700407
-0.058730349
-0.8604542
-0.32858571
-0.19878928
-0.52605814
-0.58870316
-0.10552219
-0.40657341
-0.27106869
-1.5117925
0.67079026
0.36623922
0.11628512
0.58636737
1.1467068
1.1595426
0.012734409
-0.51483381
0.57852954
0.090349048
0.032395247
-0.17336711
0.54805875
0.23814636
0.20629512
0.49537557
0.31316334
0.2850163
0.08309985
-0.0071611386
-0.04404588
0.20529182
0.11482503
-0.38307819
-0.37720162
-0.14437214
0.069393888
-0.44467545
-0.28965181
-0.59842801
-0.39971003
-0.11660192
-0.11749006
-0.41452205
0.023472603
1.7691166
3.2995188
-5.359745
-0.86968553
0.31018445
-0.53479391
-0.27389339
0.16423707
-0.53747296
-0.18626073
0.080649234
-0.40774849
-0.17203106
-0.41455534
-0.42703441
-0.56389636
-0.89246702
-0.58425295
-0.1614503
-0.93939471
-1.0139767
1.1408523
0.065392226
-0.47218782
0.27856866
0.32541174
-2.0822666
-0.17365989
3.1971385
-0.11511362
-3.9930949
-0.2280791
-1.5087228
-1.0405213
2.7853928
0.0033953509
-0.0053333445
-0.54075122
0.9635042
-0.10400154
-0.28747857
-0.098891385
0.11929899
-0.32379004
0.15401496
0.051802453
-0.10893505
0.23846182
-0.05846509
0.31536093
-0.18296389
0.2194882
0.44761458
-0.018227432
0.17541008
-0.17751549
0.25462916
-2.958297e-05
-0.15266548
0.07587146
-0.35636467
-0.29794014
-0.2032069
0.087212533
-1.3704056
-0.97385198
-0.2768907
-0.30519918
-0.21689199
0.2679297
0.31114095
-0.19178553
0.38973635
0.9686895
-1.4678516
-0.20284605
0.51275694
1.1374693
-3.2043679
0.12801555
0.57362884
0.56613243
-4.0012703
0.36393484
0.36545017
0.60106987
-4.3956676
0.15695341
-0.34442014
-0.53120434
-2.7334979
0.022181788
-0.85853612
-0.58191913
0.15608847
-0.14763241
-0.72251004
-0.44858408
1.17557
-0.014950419
0.00012350365
0.42619106
0.52063304
-0.041501418
-0.13611545
-0.036925957
-0.010153851
-0.17089516
-0.024568059
-0.34983012
-0.32728481
0.028189566
-0.13729817
-0.64183098
-0.62538183
0.22164468
-0.62908828
-0.23051749
-0.75363749
-0.19685438
-0.3214182
-0.096784815
-0.29763833
-0.16728351
0.20798725
-0.31293952
-0.40487313
-0.78407288
-0.64107496
0.22712442
-2.0034745
0.40971237
-0.49713829
-1.1916542
0.54694337
-0.49436477
-1.0981927
-0.14758095
0.22997385
-0.44061026
-1.1828666
0.59335756
0.041768435
-0.2973339
-0.63248634
0.057376076
0.22279853
-0.38001794
0.10849965
0.21698104
0.055931702
-0.21277428
0.03799792
-0.013035525
-0.46869791
0.086794652
-0.23989378
-0.1659157
-0.10213404
-0.13556194
-0.9948926
-0.2282294
1.3425472
-0.006658352
0.96317756
-0.66468656
-0.12575854
-0.12706465
0.48117483
-0.28630984
0.1053457
-0.21816245
-0.23152353
0.20330055
0.32723495
-0.1316053
-0.47062293
0.23598078
-0.0058017392
-0.1471962
0.80292934
-0.76319754
0.10358591
-0.18883334
0.14403184
-1.0220056
0.64130872
-0.44718254
-0.14984547
-0.87023705
-0.035520505
-0.68752187
-1.0805542
0.62925023
-1.0643578
0.99783969
0.061557099
0.033267751
0.13650724
0.20958853
0.30377612
0.26066586
0.043599013
0.11589343
0.092299484
0.12003645
-0.056866944
0.068176083
0.0044256435
0.28690588
0.073322698
0.15202536
-0.18409455
-0.24675991
-0.11902931
-0.036114231
-0.81333292
0.3900283
0.12145875
-0.45375857
-0.34022665
0.023716236
-0.74219006
0.4995524
2.3610857
1.0443441
-1.9628507
-0.0041037737
-0.59084439
0.1583972
-0.97432125
0.5209173
-0.22304174
-0.11269684
-0.20968261
-0.4551883
-0.070413254
-0.18890102
0.14209817
-0.057951342
0.090691559
0.1601447
0.58543825
0.077071205
0.11362479
0.015798077
0.14074893
0.22822441
0.13181071
-0.093452506
-0.19385228
0.23325391
-0.35978541
0.058473442
-0.094767153
0.20839128
-1.023104
0.87552667
-2.2250645
0.092190914
-0.24995144
-0.0053707953
-0.83349419
0.79989064
-0.27965173
0.30741712
-0.54671323
0.0024603005
0.039899424
-0.24547379
-0.091787562
-0.044810977
0.66772693
-0.49982896
-0.75848454
0.13222769
0.55859244
-0.91105258
-0.13621297
0.08297468
-0.16103221
-0.82081068
0.26839253
0.09063904
-0.05879524
-0.84934372
0.40459317
0.26219231
0.46927682
-0.051013399
-0.54527903
0.0039427606
0.32450315
0.4994252
-0.80366051
0.18112759
0.13982192
0.78734457
-1.4610232
0.13121273
0.13763066
-0.39879948
-0.63697284
0.085692048
-0.077911317
-0.21942085
-0.37029386
-0.14209673
-0.40656921
0.21940452
-0.13170877
-0.4627791
0.026059099
0.050814636
-0.27680635
-0.32038796
0.0026044033
0.34575018
-0.96739662
0.48605764
-0.23548013
0.30155665
-1.0390313
-1.0713468
-0.052089073
-0.5626235
-0.52111536
-0.08993049
0.028042143
-0.069542646
-0.41043964
0.047353815
0.062342376
0.12072615
0.18321642
-0.27551568
0.20070277
0.56532103
-0.21024989
-0.033976726
0.023718895
0.10771485
-0.56185192
-0.38797712
-0.58455652
0.49437475
-0.47156131
-0.25824764
0.38887057
-0.89143634
-1.4357173
0.4119809
-0.36774677
-0.43940738
-0.84823549
0.0060753752
-2.6027176
-0.45341879
2.3768153
0.44927061
0.15046024
-0.3716228
0.58264005
-0.1339839
0.55159986
-0.35683578
-0.47913453
-0.0055638608
-0.14492309
0.27853408
-0.031130617
0.051255144
0.042768907
-0.12930043
-0.4196279
-0.062247515
0.072335698
-0.16338155
-0.59320295
-0.3103281
-0.44755346
-0.35620719
-0.29701996
0.2434238
-0.74991685
1.3419259
-1.0345926
0.81068629
-0.61508524
0.39590278
-0.70832765
-0.15927722
0.16575208
-0.28078732
-0.81148762
-0.20681702
-0.11446584
-0.56037819
-0.083955511
-0.26521477
-0.33019716
-0.81501079
0.80722886
-0.15911342
-0.017326269
-0.2970522
0.50528944
-0.16842419
-0.24335724
0.18007512
0.24843878
-0.058481276
-1.1697323
0.16920985
0.56947386
-0.076413527
-0.55211174
-0.61437088
0.56984323
0.0015240551
-1.2928758
-0.4866145
0.31059659
-0.080613628
-0.43025738
0.45859262
-0.58343959
-0.16134755
0.22816083
0.65401638
-0.86925286
-0.28739423
-0.14301819
0.64130747
0.0010998574
-0.24342181
-0.65536559
0.0034812714
0.77526081
0.060367163
-0.66137064
-0.76518244
0.69693458
0.028572025
-0.00045496036
-1.7380563
0.55705076
0.16437344
-0.56012321
-0.75794685
-0.061417378
-0.064341158
-0.17328773
-0.11226708
-0.44374838
0.36930159
-0.25054961
0.12323115
-0.35122117
0.19172063
-0.018618289
0.096193694
-0.48495704
0.1339608
-0.073949032
0.48148492
-0.67893052
0.27117866
-0.081227228
0.43979129
-0.86663109
-0.091271572
-0.018135551
0.21338871
-0.76809502
-0.20907885
-0.063448891
-0.60369593
-0.45592684
0.34898016
0.27008852
-0.19576731
-0.84549254
0.0030766597
-0.63006949
-0.017179718
-0.15316354
0.29587549
-0.097727485
-0.26632479
-0.30506244
-0.1030976
-0.25809136
-0.67575914
0.25627583
-0.12701136
-0.22498642
-0.26966017
-0.074400209
-0.086163506
-0.054748707
-0.47123525
-0.25400037
-0.057420142
0.34558803
-0.43653411
-0.66423005
-0.008993974
-0.16616167
-0.52554435
-0.060301062
0.273689
-0.55867386
0.34268197
-0.30576408
0.71086144
-0.020397732
0.88872397
0.38993192
-0.1414309
0.22318134
0.33754691
0.41115957
0.34033433
0.49506307
0.1303881
0.27077994
0.50108564
0.49227169
0.2464056
0.010633598
0.41203031
-0.017281435
-0.38574252
0.35908923
0.35493764
-0.07958325
-0.26099771
0.090828709
0.25169379
0.18273993
1.3512794
0.66816908
0.23025183
-1.0279912
1.2066201
0.49154666
0.0014580074
3.1907625
1.2620277
-3.9726446
0.27712831
-0.058122292
1.0569093
-1.0411583
-0.52477723
-0.69884944
-0.8163408
0.74030334
-0.23043938
-0.018113365
-0.32512757
-0.69866645
-0.22171141
-0.18693414
0.40206301
0.21329187
0.13657311
0.57540935
0.22827601
0.54784524
0.01773525
0.34572431
0.22096762
0.3306331
-0.077984795
0.31338295
2.2646511
-1.3711729
-0.34709263
-0.19306704
-0.29897112
0.11016919
-0.056226294
-0.29962307
0.058542598
0.15906335
-0.17617965
-0.35646784
0.033516284
0.0157535
-0.10784742
-0.11719562
-0.13252404
-0.10642768
-0.14460915
0.021279655
-0.29255053
0.11970506
-0.066053651
-0.65896261
-0.23171557
0.42173162
-0.019658487
-1.5215626
0.54528373
0.02698339
-0.16297451
-2.1030724
0.97589999
-0.6877563
0.0011590217
-0.54526246
1.0947031
-0.99102312
-0.13778278
-0.072628401
0.59819329
0.32063362
-0.37236202
-0.5516305
-0.1778952
0.96739745
-0.16133176
-0.78513914
-0.51057708
0.89794838
-0.041511297
-0.15853195
-0.72707713
0.10548964
0.22859576
-0.0479309
-0.48867303
-0.26473081
0.12376737
-0.14931971
-0.34934157
-0.46876854
0.017107891
-0.31422073
-0.50473291
0.16234368
-0.32752126
-0.054848112
0.16729808
-1.1570138
0.3464576
-0.029796626
0.3174462
-0.36864346
-0.23456994
-0.43358096
0.45442703
-0.34887505
-0.08243461
-0.61336374
0.77037489
-0.52265817
-0.60146791
0.019628385
-0.12376983
0.016161589
-0.21895279
0.4421508
0.18845659
0.30987394
0.3345921
0.252606
-1.5886121
0.75357378
0.43645486
0.37243652
-2.8191442
1.9983463
-0.0015848501
0.073950075
-0.94973314
-0.2903049
0.45282051
-0.45610726
-0.082574964
0.28064993
-0.28132415
-0.16144133
0.11644456
-0.41983697
0.11905057
-0.28924522
-0.2725147
-0.12372275
0.024642494
-0.18097994
-0.15415035
-0.11592252
-0.22780326
-0.46683097
0.0016978644
-0.25017983
-0.19403975
-0.26167074
-0.19821456
-0.37793648
-0.29577938
0.83762568
1.0123159
-2.7564871
-1.0089256
0.22222611
-1.3444419
0.55335641
-0.48446038
-0.97210121
-1.2243025
0.44784313
-0.32131651
-1.3333399
-0.12006574
-0.40717527
-0.41719061
-0.88259989
-0.0054364698
0.53466946
-0.2777966
-0.0071332976
0.70495975
-1.3072087
-0.16568486
-0.4819755
1.6952939
-1.9129335
-0.074597806
-0.54976112
-0.19848137
-1.0801091
0.34205094
1.1367978
-1.0244118
-2.1901286
0.0033858621
-0.13983618
-0.33249328
-1.2856702
0.34918451
0.2292601
-0.61446363
-0.74541974
-0.58903605
0.10567826
-0.073338404
0.088525273
-0.60865152
-0.32931289
-0.71317488
0.74365407
-0.075267613
-0.59681517
-0.7005986
0.56753719
-0.16214643
0.078661844
-0.22599605
0.33800662
-0.38917723
0.44067863
-0.3395499
0.2167549
-0.61764598
-0.49978176
-0.24146295
-0.045112107
0.91338962
-0.25133774
-0.34829155
-0.58091509
-0.091746874
-0.79523516
-0.87460577
-0.24782984
-0.1955632
-0.41716304
-0.41800782
-0.75803012
-0.087823719
0.33327469
-0.1958798
-0.60416877
0.052148599
0.072930306
-0.060766786
-2.0054989
-0.11194018
-1.6589544
2.5227668
-1.6080998
-0.20909387
-2.7495432
2.4316177
-1.373136
0.3768439
2.3899126
-1.4708526
-1.5839967
-0.0046266993
-0.45817238
-1.2677722
-0.33547059
0.40149716
-0.01306128
-1.9984963
0.92101622
-0.5170117
-0.45839664
-0.59331292
0.24030754
-0.5536502
0.010494763
0.1462808
-0.053296253
-0.33326551
0.42293409
-0.39106742
-0.556732
0.053273346
-0.8003158
-0.35533741
0.55526847
-0.11294792
0.054714102
-0.14110363
-0.501755
-0.43371776
-0.97916055
0.065659381
-0.081389159
0.023140304
0.33068499
0.63678151
0.42033958
0.18496284
0.39285836
0.20923224
0.15384638
0.19946156
-0.1292914
-0.0027634122
-0.10814393
-0.27174169
0.086169481
-0.086417161
0.091276243
-0.16416396
0.043796446
0.28402439
0.097579338
-0.14118159
0.026538096
-0.79312146
-0.90659875
-0.17956021
0.73327047
0.16381298
-1.5176088
0.80409771
1.7759042
2.6220496
-4.5771351
-0.010034803
0.47595605
0.83809894
-1.6550655
0.907888
-0.11143064
0.21028164
-0.88625717
-0.50848705
-0.027588598
0.095417194
-0.45380488
-0.1660445
-0.061846588
-0.49418345
0.11157437
-0.1372676
-0.39201406
0.16725907
-0.22499117
-0.14608745
0.033053268
-0.30214623
0.018884009
0.1517709
0.20455877
0.29693601
0.38445932
-0.042660132
-1.2711008
-0.4357183
0.72340131
-0.65481514
0.26373044
0.011040234
-0.1171023
0.19562031
0.087735638
0.0681694
0.79426116
-0.032061618
0.11030905
0.50150305
-0.37896347
-0.36816978
-0.08495719
-0.14587381
0.13271758
-0.061776988
0.64898902
-0.69370341
-0.45369735
0.20220725
-0.52064425
1.2727071
-1.343472
-0.095799237
-0.51121974
0.98170823
-1.3706015
0.31881511
-0.96109194
1.5282395
-1.9996761
0.0058976142
0.82609856
-0.52676469
-0.18095185
0.11325078
2.4157419
-4.0148234
1.553795
0.55723614
0.31889901
-1.164867
1.3195083
-0.075538643
-0.069262631
-0.72294778
0.034803741
-0.39773223
-0.42246562
-0.60826397
-0.77658564
-0.23826008
-0.71316934
-0.72182268
0.0030131394
-0.25113317
0.16717805
-0.11611681
-0.0047617564
-0.55842823
-0.75231242
-2.4472857
3.240272
0.13557397
-0.19750102
-0.026444659
-0.41886985
-0.48579985
-0.24418017
0.33646563
-0.34798545
-0.38321668
0.0044654976
0.59105432
-0.49359778
-0.083245486
0.37272492
0.64229012
-1.0901132
-0.0099440403
0.44914714
-0.02840903
-1.7480569
-0.19167757
0.42051733
-0.7275039
-1.4661695
-0.2251136
-0.426938
-1.5314395
-0.024042742
0.16457361
0.15167475
-2.5377121
1.3144897
0.01477618
-0.47627208
-1.2663037
-0.14755723
0.36316156
-0.37534332
-0.65095031
-0.33150843
-0.24112858
-0.14726886
-0.149542
-0.44394797
-0.24694794
0.015451715
0.18905793
-0.21291657
0.10614406
-0.092441082
0.085695662
-0.31664672
-0.091318801
-0.041449733
0.096971683
-0.10545251
-0.068128034
0.0085237082
-0.19270122
-0.24228314
-0.20883837
-0.43123513
-0.7803061
-0.37253863
-0.2725412
-0.31106028
-0.34159687
0.47428796
-0.42233533
-0.38565624
-0.037048079
0.16128445
-0.28451926
-0.13281146
0.17571174
-0.11938741
-0.15420929
0.032883547
-0.058199253
-0.24965072
-0.05523809
0.65106034
-0.40327364
-0.35890085
-0.032483421
0.37316
-0.82741034
0.06005986
0.0048276833
0.088736258
-0.46555677
-0.12464268
-0.07142818
-0.65908021
0.34098053
-0.14576846
-0.0064039268
0.17936397
0.3357442
-0.64397788
-0.06676276
0.014331238
0.57075495
-0.236211
-0.12439025
0.24491248
-0.076515444
-0.095547244
-0.042144813
0.22675371
-0.18388428
0.086767718
-0.11538627
-0.11253606
-0.068778135
-0.074859306
-0.0099373404
-0.14587396
-0.42425305
0.4260844
-0.099871479
-0.23017354
-0.44272774
0.53448218
-0.11423988
-0.1801037
-1.0936198
0.11020259
-0.56074852
-0.38295341
0.15247126
-0.1545437
-0.37475014
-0.36842167
-0.2139765
0.071015224
-0.1361302
0.31192243
-0.09384606
-0.84902549
0.048428413
-0.23976356
0.38173914
-0.82525152
-0.27522385
0.013774205
-0.083811454
-0.50280923
-0.21935448
1.2394001
-0.9192614
-0.88287842
0.20897995
3.3249786
-2.8321896
-1.3960606
-0.14316447
-1.1775695
-0.27162585
0.38492647
0.012604327
0.1241789
-0.34112263
-1.3425323
-0.11822215
-0.22199598
0.44181383
-1.0900255
-0.35085759
0.24104385
0.021499051
0.02658521
-0.30143353
-0.55712086
0.045049567
0.41566625
-0.11693545
-0.50199795
0.058427893
-0.42398408
-0.13046123
0.25155258
-0.58681804
-0.76086229
-0.21423808
-0.7386952
-0.19731812
-0.24949773
-0.652776
-0.93470824
-1.9573531
1.2286054
-0.20855828
-0.58520937
-0.77566332
-0.33142227
-1.1935477
-0.4870244
-0.34644619
-0.82339942
-0.82251143
-0.32587677
-0.32563245
-0.196486
-1.1553631
0.31703725
-0.012612786
-0.033279166
-0.6298905
-0.28703648
0.15045026
-0.53155154
-0.178638
0.11830555
-3.631278
-1.4665663
0.56551254
3.7464917
-7.0066996
-2.2507379
0.46764389
3.2569258
-5.0098023
-6.7892914
-0.00088634621
3.6810298
-7.2660074
-2.9262698
0.56064308
0.14704606
-1.6040198
-0.38220206
0.20261359
0.10340226
0.057782281
-0.36682454
-0.56301016
-0.61692214
-0.12497607
0.25394681
-0.78828204
-0.75659204
-0.69478446
-0.63155949
-0.67735231
-0.39971983
-0.59194314
-1.0743324
-0.33353889
-0.64117914
-0.47237408
-0.40774158
-1.1788496
-2.6287134
0.14958248
0.56645119
-0.43065843
0.33195895
0.73556381
-1.3143908
-0.60394621
0.36124024
-0.53972268
-0.44334453
-0.31824055
0.13707989
-0.53393066
-0.54146731
-0.31940511
0.0085894428
-0.61999369
-0.19638824
-0.27261975
-0.5333851
0.17058848
0.079510063
-0.23706399
-0.35522169
0.049240701
0.36644095
-0.029720265
0.50038463
-0.20976301
-0.3601445
-0.10741277
-0.12454329
0.12649834
1.0430336
-0.0039239512
-0.46731219
-0.091343924
0.37874976
-0.10754542
-0.8619867
-0.21720932
0.23569886
0.033091012
0.17599265
-0.37052977
-0.71136242
0.012008512
0.15695994
-0.2973637
-0.26868141
-0.12624352
0.18775533
-0.05037101
-0.75528526
-0.40004998
-0.3267068
-0.10022692
-0.20169136
-0.47586089
0.068368025
-0.30712855
0.47278583
-0.82584625
-0.46191043
-0.93867576
0.064893983
0.3554796
-0.27006397
-0.52734989
0.62709463
-1.1653702
-0.4287627
0.4524624
-1.028523
-0.067937993
-0.39164892
-0.69834417
-0.49712807
0.31073132
0.25189948
-0.52386111
0.31064075
0.15757316
0.16126101
-0.50298905
-0.3809683
0.60396904
-0.034290183
-1.1193871
0.46066028
0.2920475
-4.7018776
-1.6520965
5.1580548
0.84780777
0.0074123708
0.1982511
-3.0017073
-0.0071920641
-0.10889152
-0.43377858
-1.2640408
0.84672362
-0.33152437
-0.92970794
-0.068871662
-1.2817322
0.12234425
0.051205214
-0.11633731
-0.48026597
-0.14852096
-0.21195391
-0.31328452
0.22387807
0.38575345
0.48261458
0.35334772
0.31097078
0.04019101
-0.068982974
0.059561059
0.3899807
0.23497097
-0.1849086
-0.07786122
-1.0851731
-0.59372199
-2.5923898
2.5497186
0.012016845
-0.031428296
0.27322295
-0.15273987
0.10632726
0.12945114
-0.16560647
-0.087874815
-0.059658408
-0.014311696
-0.41508853
-0.010331864
0.13757628
0.24297287
-0.39890409
-0.31210539
-0.085923627
-0.11575147
-0.096659586
-0.041514263
-0.28028277
0.33882403
-0.51636851
0.61920202
0.12251455
0.13989805
-0.67893296
0.99676877
-0.056155171
1.5567831
-1.9181615
2.3094213
0.0058064731
0.60903651
-0.3512381
-0.56360185
-0.057049628
-0.12235702
-0.29618394
-0.50485033
-0.065510377
-0.016419413
-0.16948527
0.1078132
-0.28759947
-0.026291089
-0.22942443
-0.14452685
-0.32608873
-0.098631665
0.40136236
0.11627831
-0.13425477
0.30951709
-0.059972435
0.054264951
-0.051804401
0.12043726
0.089475282
-0.0423101
0.057598196
-2.8185332
-0.40608454
0.20875603
1.4821248
-0.37070438
-1.2038455
0.2432154
0.39427105
-0.14121379
-0.78558183
-0.45869794
0.26160377
-0.55282092
-0.49282989
-0.19100317
0.20663112
-0.98357046
-0.21017647
0.93137974
0.27201781
-0.85055584
0.37118658
1.1676937
0.16644935
-0.49466258
0.57342452
0.34157297
-0.074955069
-1.0727422
0.90257871
-0.11458807
-0.034692623
-0.7949577
-0.0054435749
-0.51293069
0.0091230944
-0.65005392
-0.030710772
-0.31063011
-0.024577044
-0.83039135
0.33057767
0.018735461
-0.41496027
0.34529525
-0.44366032
-0.59231579
-0.26993504
0.31656715
-0.11296156
-0.60300308
-0.0046706013
-0.057878476
-0.14288694
-0.51981395
0.2809324
-0.10672613
-0.18467692
-0.353405
-0.075371675
-0.30967981
-0.14518003
-0.24146691
-0.12964329
-0.37522659
-0.15988258
-0.57372051
-0.60167605
0.27238345
-0.41072214
0.22387397
-0.10547835
0.21242799
0.11760707
0.16324444
0.020066654
0.54318309
0.3059822
0.79134148
0.074733131
0.90079582
0.78712636
-0.040763501
-0.37146187
-0.45580623
0.27215254
-0.85803854
-0.35862267
-0.36981633
-0.29077154
-1.3681905
-0.14308417
-1.8933947
-0.52119762
-1.116806
-0.087961435
-2.0591309
0.23072042
-0.68888128
0.0045612585
-2.9670568
-0.024569063
-0.70742542
-0.13642785
-1.2447257
-0.017495146
-0.97121644
-0.17432241
-0.91248906
0.7183966
-1.4670907
0.17969303
0.30393264
0.070069134
-0.85349381
0.59434223
0.39265388
-0.43709704
-0.075374633
0.60225528
0.15008999
-0.535267
-0.19996637
0.40368181
0.46121046
-0.22975874
0.090320788
-0.0038202403
0.4679392
-0.57911658
0.53245759
1.3488735
-0.5196836
0.24031243
-0.71131265
0.19746757
-0.54846406
-0.49702525
0.4512735
-0.1291028
-0.0041913143
-0.29069024
-0.24667841
-0.17558086
0.080104716
-0.62870717
0.062454328
-0.26904407
0.17438971
-0.67392725
0.16192548
-0.0063100471
-0.59464794
0.20731537
0.62426859
-0.083981238
-0.034700848
0.39846769
0.27286243
0.18596353
-0.72992373
0.57824856
1.0256943
-0.005082679
0.0059398529
-0.29563221
0.035380598
0.14862442
0.059848826
-0.51824689
-0.27252465
0.0062982971
-0.081724003
-0.5584088
0.27457944
-0.13921833
-0.44128492
0.28130421
0.6375882
-0.42839843
0.26010066
-0.10769793
0.067007236
-0.48190746
-0.13878821
-0.20166196
0.17131132
-0.21787839
0.17089157
-0.30875564
0.21921088
-0.27631432
0.58063972
-1.1480185
-0.01409794
-4.283854
-0.18180257
-0.52291965
-0.39213157
-1.0097176
-0.26717362
0.16750285
-0.72649109
-0.47577652
0.034528781
-0.41614392
-0.021235939
0.55243582
0.14789583
-0.44641674
-0.26849505
0.044739332
-0.2528525
-0.88315862
-0.60383201
-0.33152625
-0.38942754
-0.99090302
-0.38838404
-0.41728348
-0.74282342
-1.2633986
1.1123749
-0.072123431
-0.68706173
-1.9168366
2.8360679
0.0025543491
2.2720604
-0.82014304
-3.4644215
-0.053875081
1.1643723
1.1140845
-3.4017041
-0.29583833
-0.65748858
0.92529225
0.17065239
-0.61781049
0.24752471
0.017325703
-0.20968051
0.32016179
-0.052170955
-0.15984616
-0.45353413
0.26395181
-0.45027652
-0.06554196
0.54538572
0.18213591
0.40713251
0.46503666
-0.33432123
-0.57462108
0.20184778
-2.3671646
0.88546491
-1.605629
-0.14015168
-0.25002146
-0.1445459
-0.24007992
-0.062189471
-0.25626066
-0.29929864
-0.2021867
-0.32405642
0.005101067
-0.079601996
-0.076977804
-0.33928898
-0.060116537
0.059675634
-0.0051233689
0.10266718
-0.062166266
-0.10231858
-0.04378527
0.081803121
-0.12757571
-0.31580997
-0.026476011
0.099015534
0.087951496
-0.88121015
0.023371955
-0.4040814
0.13440904
-0.73941231
-0.0051645953
0.087322302
0.1146863
-0.80709845
0.064683966
0.071061574
0.10914569
-0.46767423
-0.12128912
0.35163715
-0.24368837
-0.5363676
0.008991261
0.3124496
-0.32443148
-0.24179985
0.070505686
-0.12588446
-0.21359602
-0.29889524
0.18380187
0.058191322
-0.50966781
-0.12156259
0.15685304
-0.10208502
-0.17289177
-0.29976061
0.17921643
0.016223773
-0.80467135
-0.15558572
-0.60904938
-0.35454446
-0.33889472
-0.29840079
-0.65141958
-0.17094249
-0.23414139
-0.32546961
-0.35698044
-0.23597585
-0.24047673
-0.084193021
-0.42865548
-0.22534484
-0.19986299
-0.2862483
-0.46160421
-0.14206345
-0.47407177
-0.42305419
-0.80142379
-1.1927882
-1.7418981
-1.2850838
-0.82905942
3.2087028
-2.3860371
-4.4934087
-0.091106594
7.3236265
-5.8009825
-3.4257982
-0.0053364364
5.2342691
-3.078167
-3.6817737
-0.042955104
-1.1842135
-1.4305042
-0.83203077
-1.4889003
-0.33717182
-0.59078616
-0.50426942
-0.58321267
-0.16591921
-0.36891878
-0.28388068
-0.33748487
-0.11567482
-0.1645713
-0.30406898
-0.3205145
-0.47876269
-0.33999541
-0.50184411
-0.43866813
-0.29530361
-0.42314598
-0.27472934
-0.51594323
-3.961766
-2.371213
-2.1049287
-0.16075194
0.46550363
-1.4205389
-0.013745906
0.0085134245
0.22851212
-1.1334456
0.20141296
-0.30016273
-0.12827863
-0.89524287
0.22402123
0.1008958
-0.28286627
-0.46834421
0.014365864
0.10046894
-0.26444522
-0.12001348
-0.045402613
-0.18823625
-0.89808345
-0.33786851
0.97224188
-0.073747002
-0.87677103
-0.050051257
-0.37291276
0.25742111
0.029949358
-0.69304413
-1.0587316
-0.00042434805
-0.10823648
-1.1073046
0.32365131
0.42024711
-0.0059834663
0.42331162
-0.36476842
-0.53760666
-0.19007234
0.82981366
-0.061024018
-0.34145519
0.23831798
0.17496453
0.18555263
-0.18600877
0.052715149
-0.3116945
-0.45519876
0.19873331
-0.41405022
-0.54681051
-0.053668585
0.47106588
-0.4101508
0.28734577
-1.0317284
0.50500453
0.018433262
-0.11732969
-0.58033514
0.3279559
-0.35594273
1.0517764
0.66107237
-0.55889547
-0.32720906
0.54544944
0.3451184
-0.091774575
-0.21600696
-1.0406141
-0.80433047
-0.14947377
0.15579163
-1.1947113
-1.8974807
-0.28443524
-0.34487531
-1.7415504
-0.05071792
-0.51028544
-0.52901936
-0.33618784
1.3804643
-0.23203687
-1.6543868
0.969082
1.6370996
-0.23828486
-1.0106202
1.962525
-0.50892597
0.0056957891
-0.43894717
-0.92207319
0.17232727
-0.24810401
-0.94839048
-1.0278001
0.51986158
-0.76029015
-0.032087579
-0.93657798
-0.76493412
-0.45734027
-0.42154816
0.16789243
-0.8157894
-0.51324874
-0.22779287
-0.51608366
-0.75099027
-0.51646781
0.18973115
-0.44665313
-0.73323596
-0.26158527
-0.20750363
0.4695026
-0.097572938
-0.24071331
-0.67143911
-2.4684019
2.4683349
-0.239066
0.20953408
-0.28597552
0.21086088
0.0077762101
0.27779585
-0.48486993
0.16254818
-0.28027838
-0.41404995
-0.024857935
-0.19789974
-0.099888518
-0.45237419
-0.95184022
-0.19061553
0.33044034
1.0839567
-2.657105
0.77661967
0.59868914
1.6507325
-3.6674445
1.8625011
0.67411602
0.7145862
-1.5717552
-0.21561953
0.0070825256
-1.5445372
2.0219445
-1.8624387
-0.004646108
-1.154819
0.5678432
-1.0212131
0.20386548
-0.50155926
0.86480188
-0.8676132
-0.57048416
0.89448589
-0.65470964
-0.17450415
-0.022452099
0.069788054
-0.9002229
0.44490498
0.16586195
-0.040961117
0.23951797
0.26119965
0.38954782
0.27171764
-0.067408845
-0.83087569
-0.0089307819
-0.72582191
-0.20492372
-0.8441841
0.035670485
0.6807273
-1.0560613
-0.22340576
0.43724635
-0.49397692
-0.28925326
-0.16548373
-0.3500036
-0.2524254
-0.16257764
-0.33950043
-0.05231899
-0.56709188
-0.24652059
-0.34348896
0.021512471
0.54907447
0.4170627
0.13510615
-0.10485166
0.51442581
0.63446784
-0.30780894
-0.10260999
-0.097703949
0.6336146
-1.303275
0.27696738
-0.43299255
2.0579643
-1.0949929
-0.11083531
0.40192688
1.2195047
-0.76606768
0.0074412506
1.3363669
0.050799202
-0.42858276
-0.15782462
0.70008135
0.54170227
-0.17146319
-0.23054032
0.018923743
0.92199534
-0.20611306
0.46630579
0.26354867
0.71661991
0.017718017
0.11551269
0.022242123
0.30193937
-0.40067506
0.29044393
-0.33872029
-0.21684995
-0.13045312
0.35522521
-0.28142267
0.18086508
-0.21344596
-0.10754432
0.51341158
2.4494014
-2.481437
0.019668609
-0.6946407
-0.46558926
-0.18294893
-0.13582453
-0.12704933
-0.24529196
-0.37232956
-0.26585442
-0.16318969
-0.33916342
0.091936618
-0.052472383
-0.12162759
0.35658503
-0.38391733
-0.13679473
-0.20513044
0.44801116
-0.031736389
-0.34756118
0.078085572
-1.548983
0.54682332
0.047836367
0.085676894
-3.0041909
-0.13947499
0.4261755
1.6401823
-6.5644445
2.1679521
-0.0018838956
0.38083562
-3.0843854
-0.32416388
0.46808103
-0.17717144
-0.42506281
-0.18109338
0.15789187
-0.097655892
0.22674252
-0.18302229
-0.074610293
0.15269488
0.19262144
0.17624265
0.01571705
-0.28974584
-0.11696555
0.10366517
-0.28913036
-0.066653669
-0.21927926
-0.015330537
0.041192435
-0.043518282
-0.3511475
-0.084666312
-0.049725082
-0.36193895
-1.0289909
-0.0016070505
0.22744583
-0.57085717
-0.38352147
-0.66496301
0.30040142
0.085940421
0.2555604
0.014552507
0.28320235
0.042286307
0.10651406
-0.01212368
0.098523661
0.19875652
0.30599001
0.30250302
0.01306383
0.41442519
1.0243311
0.21137439
-0.12298883
0.089471273
-0.015459474
0.47436768
-0.13387118
-0.29110008
-0.38196522
1.053656
-0.29882631
-3.9482234
0.78995246
1.3064258
-0.0023831711
-0.66046745
0.36713862
-0.2828286
-0.25007862
0.47574246
0.99559814
0.13633737
-0.11882359
0.026013553
-0.10241603
0.93836564
-0.45338356
-0.41971186
-0.23603669
0.13540998
-0.013468343
-0.53345752
0.098043308
0.37908527
-0.56070131
-0.082692847
0.13162801
-0.26206967
-0.15383835
-0.51693398
0.055806831
-0.38945088
0.034915209
-2.2917993
1.4807333
1.0603397
-0.52910906
-0.27972385
0.37745059
0.50563705
-0.14572433
-0.012331799
0.19867732
-0.35055017
-0.60593426
-0.10258028
-0.032488927
-0.85887581
-0.21978717
-0.44846815
-0.11787899
-0.23323914
-0.1292655
-0.34631902
0.42139637
-0.53286374
-0.27010828
0.2217207
0.41309348
-2.1694643
0.24533634
-0.93626124
0.77565318
-1.140747
0.1913965
-0.30796486
-0.91677445
-1.3971444
-0.0030950422
3.2093954
-2.1599877
-0.95134419
0.19893479
0.52210671
-0.13155225
-0.089469664
-0.2525942
-0.86942679
0.24227576
0.63495904
-0.18118739
-0.019456642
0.65939635
-0.88713765
-0.34558365
0.13568476
0.14877556
-0.70617604
0.51107872
-0.24806407
0.10147025
0.34759817
0.32903239
-0.24340113
0.001928437
0.29068583
-0.15244423
-2.1845119
0.45685509
0.27881846
0.35500085
-0.12655209
-0.35257879
-0.044619396
-0.16900341
-0.32008433
-0.29766721
0.16365322
-0.20454901
-0.284152
-0.20564461
0.11328986
-0.10779709
-0.29107377
-0.21632308
0.09517502
-0.058884043
0.26429304
-0.34961012
-0.22749469
-0.020810423
0.077984877
-0.34483171
-0.28631124
-0.090604037
0.079883352
-0.033477932
-0.51948833
-0.0076671466
-0.53886998
0.58004647
-0.33561128
-0.0056821154
0.30705693
-0.11499846
-0.55555058
0.030166483
0.11928044
-0.087836757
-0.29087633
-0.073678091
-0.16092195
-0.45128328
0.18069325
-0.035366371
-0.19914702
-0.49578828
0.40503788
-0.094848089
-0.3028394
-0.21993099
-0.051876459
-0.016527198
-0.16219227
-0.14762394
-0.22165641
-0.031179391
-0.079422764
0.054191276
-0.28413057
-0.076680169
-0.066073298
-0.80443162
-0.20270193
-1.1917255
-0.635858
-0.43882826
-0.50710601
-0.29223511
-0.10075812
-0.58596402
-0.79538739
-0.5713309
-0.41820726
-0.26103362
-0.28683332
-0.26826277
-0.099432312
-0.5292142
-0.15427259
-0.23159121
-0.27409947
0.080613084
-0.27271158
-0.53438854
0.33953473
-0.46714869
-0.15900087
-0.04261164
0.14015283
-0.30659595
-0.61696172
-0.15669701
-1.5009005
0.54118401
-0.14266691
-0.0027910238
-0.25891379
-2.5228877
0.29025227
-0.15346482
-0.97847062
-0.56373137
-1.3617086
-0.12336729
-0.26777902
1.0253345
-2.5849588
-0.36041957
-0.13055003
1.7568238
-2.2551615
-0.3099198
-0.56363636
1.0697341
-1.5837237
-0.043644648
-0.13596289
0.48328313
-0.80016524
-0.018217944
1.1408329
-0.25524384
-1.0831252
0.024495821
-0.58192921
0.36730358
-0.92949408
-0.63377303
-0.6317085
-0.88154286
0.76134604
0.25113127
-0.64841944
-0.4980458
0.4851073
0.16935875
-0.31645054
-0.33014005
-0.13665429
0.17425016
-0.035420269
0.18853027
-0.49777323
0.26456451
-0.12727538
0.3483173
-0.39451972
-0.084831201
-0.11597822
-0.10157978
-0.096506059
-0.15019123
-0.1617668
-0.48049712
-0.20511097
0.37993678
0.7532872
-0.55292106
-1.2170686
-0.0098993778
-0.18759714
-0.3012546
-0.32998878
0.39018139
-0.079147227
-0.26367667
-0.32543355
-0.031474851
-0.28080544
-0.39386007
0.45993212
-0.14376256
-0.57401997
0.074388735
0.56728905
-0.11639438
-0.051815078
-0.057508428
-0.57406884
-0.0041514691
0.28096038
-0.20081304
-0.63566381
0.18242854
-0.79256344
-0.037029091
0.13654667
0.42360663
0.079941928
-0.19825563
-0.18683825
0.15896231
-0.095857769
-1.1601716
-0.24639586
-0.076293789
-0.41524863
-1.3502109
-0.12139957
0.46044657
-0.53316945
-0.097365603
-0.24070282
0.12538543
-1.0031009
0.70071352
0.54013878
-0.27023503
-0.048282664
-0.52298367
-0.15445966
-0.209993
-0.20089987
-0.16927986
0.23239958
-0.64217103
-2.4795144
-0.6696493
2.1777608
-0.32041219
-0.037748821
-0.18333088
1.08562
-0.0088435449
-0.28861371
-0.23648591
-0.37740529
-0.28711152
0.10981968
-1.6341176
-0.6138196
0.12625128
-0.64810091
-0.80652535
0.11800762
-0.49516341
-0.55194807
-0.73447001
0.31920189
-0.24819903
0.20917682
0.22402146
-0.39174592
0.59669256
0.11831956
0.48861846
0.0085644098
-0.010761973
0.25114554
0.029750155
-0.66733229
0.54183394
-1.6237664
-2.2846587
2.7133486
0.32604519
-0.70565355
0.16927217
0.23461325
0.18426752
-0.25391424
0.21178979
-0.27922747
0.45241454
-0.11467282
-0.047083598
-0.3032023
0.032200918
-0.54022783
-0.17488609
-0.71431375
-0.39319357
0.11716449
-0.79127067
-0.19256878
0.89918423
-1.0353006
-0.27443317
0.25887141
1.295994
-0.98805577
2.0326447
1.5666491
-0.49508679
-1.9603224
3.7013659
3.3611047
0.0045289984
1.4018939
3.1984463
-0.5368697
-0.55398977
-0.026115255
0.90852922
-0.43009225
1.3616092
-0.099108256
-0.60656965
0.30393949
0.40446433
-0.21659742
-0.67052382
-0.46360242
-0.6133945
-0.96117866
-0.20020506
-0.82356048
-0.3401542
-0.43931252
-0.11670326
-0.14026739
-0.26267031
0.15460522
-0.030525483
0.25236887
0.12626521
1.0816331
0.37962663
-0.62166971
-1.4068699
2.1182506
2.6863678
-1.9002374
1.1362978
0.39391008
0.25060302
0.92941272
1.9306821
-1.4608674
2.0485468
-1.4171143
0.91432059
-1.5619493
1.7769364
-0.88990223
-2.0023136
-0.31693277
-1.0991714
-1.0068477
1.3080866
2.0109046
-0.64905566
1.0340149
1.4692653
-0.047649484
2.652849
1.4676213
2.4390683
0.97129607
-1.860655
-3.0736525
0.48150656
-1.9503409
3.9974508
-1.7057091
3.145472
0.35400212
0.47846878
-3.9474206
1.9922378
-2.1877234
0.62094373
-20.219355
1.6712192
-1.8869424
-1.5978551
-1.7306134
0.68615568
-2.92963
1.9515315
0.61491668
1.1896874
1.1976511
-1.318127
-1.3781885
-1.6037836
-1.9960176
2.0408432
-2.549401
-0.99115103
-3.717314
-2.1628795
-2.1517861
2.2904551
-3.4344194
2.5405688
-1.4474984
4.8746843
-2.4262869
2.0046237
-2.8492651
-2.8007863
0.27450544
-1.7813125
-0.5398792
0.43359488
-2.2442191
-0.38628387
0.65647674
0.10813697
0.11011548
-1.3634582
-2.3589277
0.13788478
2.3631573
-1.4451767
-0.95394874
2.2801518
-0.13840643
-0.23055418
1.459257
-2.3238578
-2.0226119
4.3355699
-1.3343743
-0.82233316
-0.55526835
-0.27953276
0.27153239
-2.7797883
2.3556561
1.872557
-3.8321958
2.514848
-1.5795259
-1.3129245
-2.7050714
-0.58312452
-1.9962379
0.69471854
1.4550908
-1.7705152
0.16863856
-0.49539155
0.83643264
0.45196864
1.092708
0.2144326
-2.0633409
2.8389859
-0.9689734
0.89217407
-2.8114018
0.9006542
-4.645082
2.3775337
4.8537903
0.77077901
-2.5305278
-1.3144795
-1.499819
1.3266394
-0.99626482
-2.0889783
3.068171
-0.3912679
-0.6137675
-0.30061939
-5.1718311
-1.5017116
-1.8042842
1.3227228
1.8436621
-0.49974599
1.1605856
-3.3211286
2.0916224
1.9170147
-3.6059182
-2.2738879
1.7523174
1.5098954
-0.29452357
-2.0527449
2.7603343
-2.1514633
-0.68700039
-2.3251975
0.8261261
-0.27415255
0.36217159
2.6511405
-0.94773066
1.5173324
0.91721946
0.56579655
-2.4712834
-2.000396
-1.1954356
-0.37880653
0.64377135
1.0547764
0.39248818
-1.8351221
-1.2116334
-1.412205
-0.040605355
-3.8380075
0.014510106
-2.4162116
-1.114884
-1.8182528
-0.83002347
-2.3494973
-0.31556952
-0.53039044
0.14189407
-0.42736527
-1.155737
0.19010198
-0.95268655
-0.14251524
-0.96600521
-2.8825183
-3.0549903
-0.64615536
0.15846208
-1.2952383
-3.3548245
-0.73777086
-1.5474755
-2.2523656
0.36775577
-1.9764248
0.079197712
-0.64574176
0.3149952
-8.0231133
-0.67221904
0.86850256
-2.0157962
-3.2441845
-0.88375831
-2.0514424
-0.39405772
-0.083960198
-0.027653432
-0.37872621
1.1700268
2.0664945
-0.71213847
-0.46503952
-0.43923652
