0.065912463
0.014938442
-0.12279958
0.010772551
-0.0011099839
0.087663539
0.16067469
-0.033727877
0.034717619
0.12297853
0.10435928
0.11366349
0.22514732
0.10772207
0.020636149
-0.079145811
0.096627407
-0.07177344
0.13119973
0.29068777
0.12299136
0.10026554
0.1678645
-0.058632564
0.074775398
-0.19790596
0.019557044
0.13413393
0.008550344
-0.049598604
0.14902794
0.17469181
0.25155133
0.045651093
0.056760978
0.052424055
-0.11258515
0.0046318807
-0.040089756
0.058485236
0.22565167
0.19540198
0.11211148
-0.031636339
-0.16335864
-0.037333652
-0.030403504
-0.10097394
-0.039511386
0.12640959
-0.024843974
0.16355376
0.26964387
-0.00031566079
0.051709473
0.11543033
-0.0094191143
-0.14736414
-0.21943519
-0.17039305
0.04916184
0.13298516
0.15322733
0.090709604
0.084570147
-0.09859366
0.045991555
-0.071222909
-0.02247085
0.0053377273
0.18663712
-0.026011365
0.044612307
0.13360511
-0.0070728413
0.0098280348
0.10224488
-0.0040031471
-0.07776957
-0.14907505
-0.184918
0.0096223382
0.023389123
0.10923449
0.19681151
0.093124591
-0.024764968
0.026046459
-0.13957991
0.0049475329
0.065982722
0.13946697
-0.15362647
-0.039046783
0.16495204
-0.016689053
-0.062990956
0.141424
-0.054687466
0.0065800771
-0.16009365
-0.10023235
0.099927105
0.036333241
0.077812456
0.1690601
-0.0030460921
0.035411417
0.078932963
-0.063248634
-0.070788287
0.037927724
0.14252049
-0.03635693
-0.033087157
0.065032445
0.011692663
-0.15439695
0.21262264
-0.098684236
0.045170814
0.07390964
-0.1694614
-0.039408784
0.12815993
-0.0069904216
0.15364915
0.022348318
0.1093873
0.11512565
-0.058697619
0.014585743
0.25378022
0.1540785
-0.086471155
-0.13252072
-0.032062661
0.12700677
0.059367251
-0.045780744
0.02665231
0.11011575
0.26504558
-0.11728231
-0.085710883
-0.098994039
-0.36051857
0.0042420588
0.03905851
0.20097949
0.24237394
0.091456681
-0.069161244
0.1471779
0.24177644
0.083626509
0.065469697
-0.075359918
0.047219906
-0.23363943
-0.053884726
-0.076355271
0.17327237
0.13356978
-0.18805598
0.1032699
0.11631791
-0.4051621
0.037858605
0.02203854
0.0091400938
0.15451922
-0.056601271
0.080308467
0.10932948
0.086990573
-0.085709915
-0.047213566
0.066243872
0.031181039
-0.26709697
-0.056508034
0.11493643
0.10949099
0.10836384
-0.11105485
-0.10011241
-0.021608818
-0.27954009
-0.13421729
0.038753994
0.11732102
0.31342977
-0.014270191
-0.074608579
0.16773912
0.14704359
-0.067104511
-0.10957151
0.10258118
0.0054005678
-0.245075
0.10590546
0.17559457
0.22601305
0.093158491
-0.088181436
0.084916584
-0.19085594
-0.014621494
0.19356924
-0.058869835
-0.14245576
0.094512798
-0.041148093
-0.022754585
0.16761902
0.1349787
-0.1643268
0.088806845
0.23260017
0.0076049198
-0.057134617
0.072645575
-0.043707386
-0.049630009
0.0938164
-0.097881287
0.068745583
0.25463307
0.09091147
0.076202244
0.047854554
-0.063303672
-0.035196565
-0.09862949
0.05971342
0.08963985
0.14714591
-0.0133654
-0.046501409
0.052927174
0.16354804
-0.07623449
0.1066841
-0.13720536
0.09244705
0.15835933
-0.15652059
0.094766155
0.086125225
0.16264778
0.071164638
-0.12424207
-0.11612884
0.027504195
-0.14873892
-0.032345694
0.15379484
-0.01040076
-0.027933458
0.19754727
0.21908982
0.062787779
0.05194173
0.10057106
-0.011641757
-0.0055597574
0.018642671
-0.12820402
-0.049980316
0.20836167
0.17354104
0.073421441
-0.00015563633
0.08888489
-0.046792746
-0.048479687
-0.093165718
0.041178908
0.018798791
0.018354561
0.14686802
0.22748618
0.056953236
0.010352602
0.12299632
-0.056314703
0.043007504
0.072049357
-0.036505319
0.039301049
0.11362035
0.12801689
0.068342328
-0.044241507
-0.064712606
0.049494967
-0.1492777
-0.060190581
0.22380036
-0.080693245
-0.037403915
0.12788473
0.18038104
-0.018855296
-0.0037407866
0.046020243
0.16126022
0.0012991644
-0.11423484
-0.081389584
-0.074545458
0.21348339
0.13913418
-0.051802449
-0.041019604
-0.038631521
-0.050508935
-0.032032933
-0.017642692
-0.038929723
-0.02319129
0.0044791945
0.0044193449
-0.01540026
-0.025039131
-0.055787269
-0.013721021
-0.017628977
-0.058541782
-0.040987723
-0.0070429458
-0.0077398429
-0.08278545
-0.084556282
-0.04595669
0.0089869099
-0.055347532
-0.03919863
-0.074915543
-0.012331986
-0.048977774
-0.050209858
0.0057245991
-0.010736653
-0.066451751
0.018942278
-0.064037241
-0.05649941
-0.0097223092
-0.022526238
0.0023736821
0.010864181
-0.0011804454
-0.057480037
-0.040931955
-0.015617405
-0.063671142
-0.029542804
-0.031016698
0.0034411505
-0.077940837
-0.043397002
-0.030673144
-0.028114691
0.0121226
-0.042268515
-0.030735807
0.0032512988
-0.059197742
-0.016594449
-0.046114091
-0.022003677
-0.0067950236
-0.014626187
-0.046087924
-0.025474221
-0.040520284
-0.079377376
-0.027900988
-0.05298629
-0.047059219
-0.057457864
-0.07818795
-0.11523765
-0.037942823
-0.0092852442
-0.020013953
-0.039901536
-0.040808555
0.011149427
0.0087386379
-0.032148324
-0.04667598
-0.023949899
0.0026581094
-0.049809068
-0.010687584
-0.037946004
-0.011344256
0.050816704
0.059806176
-0.018426444
-0.11169682
-0.07975772
-0.068414167
-0.0088487621
0.014214189
-0.054404031
-0.071470037
-0.044813413
-0.046624847
0.019793551
-0.0058699981
0.0043620928
0.00068907737
-0.043208163
-0.038237486
-0.0060809762
-0.033947453
-0.054442741
0.011740597
0.076793104
0.0010455044
-0.083725661
-0.058239575
-0.012915634
0.0033364096
-0.055765029
-0.030066228
-0.08264368
-0.086226508
-0.045413412
0.10347012
0.037288237
-0.043766644
-0.048618283
-0.069675624
-0.03832221
0.0021642982
0.011776036
-0.04429967
-0.026616203
0.0027833567
-0.044090658
-0.081646919
-0.084121652
-0.049944799
-0.051396187
0.054066028
0.05612269
-0.056677535
-0.01478781
-0.016450342
0.019073311
0.039504565
-0.0066874526
-0.011597839
-0.043158371
-0.011534858
0.073224381
-0.04464433
-0.0034653775
0.007843446
-0.023047574
-0.027496124
-0.016597386
-0.019386945
-0.038865034
-0.013146478
-0.00065694441
0.017730491
-0.043829303
-0.036436513
-0.0047092363
-0.022290787
-0.014026674
-0.017184036
-0.038213413
-0.052118734
-0.040662624
0.072154567
-0.037946377
0.03334162
-0.028266016
-0.045995884
-0.009323989
0.017634785
-0.055265345
0.031345136
0.0057158447
-0.025913319
-0.0019339515
-0.0077678268
-0.051862724
-0.01175976
-0.016568068
0.00081023533
-0.03401275
-0.034288041
-0.03720485
-0.032883365
0.095219262
-0.041802801
-0.065640695
0.01152082
-0.032317977
0.025037417
-0.044305917
-0.067492083
0.016457256
-0.020070069
-0.047587261
-0.05069457
-0.061744835
-0.069388941
-0.078126848
0.014584176
-0.013039109
-0.017844463
-0.033691753
-0.057057124
-0.018845685
-0.016122922
-0.027003368
0.014702439
-0.043577593
-0.031761523
0.024974249
-0.034581989
-0.044343688
-0.042853389
-0.044721033
0.0078889206
-0.036000241
-0.037399147
-0.049857736
-0.0024269309
0.062704645
-0.043228019
-0.047829825
-0.013137859
-0.021603772
-0.012295063
-0.044906046
-0.054790325
-0.011060664
-0.028347952
-0.055023286
-0.032600354
-0.048459549
-0.071741551
0.006811677
-0.00031359959
-0.034363508
-0.046797764
-0.038364612
-0.082906529
-0.058612034
0.055384178
6.7553927e-05
-0.00084882719
-0.021010183
-0.027920056
-0.035898607
-0.05662109
-0.082677051
-0.071441114
-0.086630777
-0.061476171
0.0079315137
-0.051001672
-0.072038434
-0.028416514
-0.027677368
-0.0020843702
-0.077101864
-0.048052005
-0.045433123
-0.062005505
0.013405405
-0.062763505
0.0019453292
-0.007071448
-0.046812106
-0.039310329
-0.05202255
-0.080401063
-0.028570125
-0.057099186
-0.057495218
-0.0042541064
-0.032589018
-0.061183378
-0.064351164
-0.025384497
0.04738725
-0.045280788
-0.068198472
0.002549933
-0.069934107
0.067419194
-0.023926985
-0.0011201557
-0.038581263
-0.057355039
-0.014406499
-0.039994124
-0.072062723
-0.070356198
-0.03873162
-0.051767975
-0.018937087
-0.03578645
-0.056738541
-0.11353803
0.0034159608
-0.037917737
-0.066924997
-0.050652586
-0.0016738148
-0.031068362
0.056333099
-0.052725397
-0.038671441
-0.022168497
-0.049782906
-0.019220717
-0.058040269
0.048636962
-0.021961864
-0.031486601
-0.028657872
0.066443473
-0.076284446
-0.071069472
-0.061117411
-0.017296299
-0.0035339221
0.04670392
-0.021353785
-0.060628757
0.005294384
0.025567217
-0.031638954
-0.13774695
-0.040689256
-0.0096256733
-0.087875597
0.017085144
0.025960606
-0.070826076
-0.036144275
-0.0081995418
0.041366052
-0.082945272
-0.069999926
-0.051698323
0.0017992301
-0.02695585
-0.027017148
-0.05362365
-0.0095324898
-0.017545817
-0.010180576
-0.028602805
-0.047165815
0.042624172
-0.0063628764
-0.1220824
0.022095071
0.042600907
-0.0080193495
-0.048426408
-0.058918096
0.050506614
-0.058886353
-0.06481088
-0.034818318
0.0078714518
-0.026047468
-0.052812576
-0.070158325
0.0058618183
-0.049449231
-0.024498941
-0.056745775
-0.10738709
0.099294022
-0.048393711
-0.11239348
0.016817793
-0.024079742
-0.050238863
0.016541075
0.037034266
0.0086293006
-0.14739481
-0.086746313
-0.046578426
-0.027738687
0.0047472417
0.014826182
-0.078839891
-0.0010040174
-0.02153438
-0.016817387
-0.0074088913
-0.091587707
0.021126349
-0.00047223698
-0.074224897
0.030622562
0.0070352633
0.032738626
0.12703143
0.12599094
0.061658755
-0.07480704
-0.0066486234
-0.071900636
0.006956805
-0.10387701
-0.0063920557
0.013158029
-0.033545475
-0.043820579
0.15408048
0.056642119
-0.10490111
0.018681563
-0.066617809
-0.22127225
0.054398779
0.023945579
-0.031145716
0.084783323
0.13313678
0.044073753
-0.08197397
0.057878204
-0.090292424
0.051594544
-0.15118851
-0.063826755
-0.038336627
-0.10351139
-0.088260934
0.31627411
0.058273047
-0.15098137
0.023442587
-0.027884882
-0.29823285
0.13044403
0.0062409588
-0.14811973
0.12262607
0.23479295
0.023854509
-0.098550402
0.0068167755
0.046797033
0.037728064
-0.11804986
0.090067051
-0.055103946
-0.11699447
-0.07666716
0.32385096
0.0022582998
-0.20641619
-0.038815841
-0.095537476
-0.26440099
0.16416851
0.13897064
-0.032185182
0.17191172
0.19108568
0.00061013352
0.013370959
0.12477902
0.11769196
0.027463131
-0.22223365
0.081835024
0.067540936
-0.04294391
-0.14291181
0.31534842
0.063928261
-0.14595445
-0.050241984
-0.1074883
-0.34890923
0.084367059
0.034762256
0.075028896
0.1347504
0.067972831
-0.058595262
0.08033786
0.020878959
0.064777769
0.077064551
-0.14382809
0.024690075
0.1012188
-0.042192131
-0.069218427
0.12576948
0.033671089
-0.077644236
-0.025323875
-0.062344547
-0.21059929
0.15934867
-0.047179174
0.041199718
-0.0067758835
-0.037635427
-0.004131319
0.040012058
-0.062294506
0.024979711
0.038009945
-0.090204857
0.0047173752
0.047218416
-0.013340489
-0.070924856
0.080073938
-0.12048407
-0.1137858
-0.012503775
-0.049485631
-0.042782012
0.10946161
-0.0093575977
0.014266641
-0.048546176
-0.077209055
0.062574118
-0.040526625
-0.044855539
-0.081165344
-0.013989819
0.028562417
0.025558056
0.054146301
0.0079047717
-0.060523976
0.17997953
-0.10260244
-0.080254823
-0.0027159583
-0.062551782
-0.035912797
0.058189999
0.014924371
0.049368124
-0.036285039
0.03346324
-0.0058891927
0.041322343
0.031044984
-0.054292925
0.048541535
-0.067187592
-0.080712765
0.027460046
-0.12214245
-0.058923516
0.13554266
-0.037604373
-0.06822449
0.03682261
-0.056650233
-0.09636303
0.067412235
-0.043844543
0.010700724
-0.048880372
-0.0046634306
-0.0069947937
0.0049601621
0.025784407
-0.050523262
0.0074735093
-0.057527259
-0.10757594
0.036120132
-0.12759537
-0.052820876
0.14696081
-0.058497392
-0.025612781
-0.033059031
-0.064397685
-0.096813492
0.051143292
-0.023726711
-0.082727276
-0.080849558
-0.016932603
0.0092326896
-0.12819614
-0.061001237
-0.073835082
-0.051333845
0.043476705
-0.039784506
-0.053088401
-0.051534623
0.0032886234
0.017595263
-0.13153566
-0.098955736
-0.065594994
-0.053170741
-0.045116521
0.03461922
-0.025205832
-0.017491603
-0.051909324
-0.010973076
0.03932371
-0.096367761
-0.041817199
-0.032008752
-0.084407717
0.011707216
-0.04296444
-0.021112235
-0.062074363
-0.048740324
0.029600266
-0.068949051
-0.04860048
0.0137771
-0.027925987
-0.078838766
-0.013330296
-0.22732426
-0.022961559
0.071266793
-0.083494499
0.26646614
0.0020417543
-0.020895407
0.25362059
0.40647689
0.012875428
0.1112662
-0.030647116
-0.1672578
0.010649155
0.1662423
-0.026640544
0.15528721
-0.001982511
0.037752982
-0.0097824652
0.050375056
-0.057353526
-0.11557839
0.063639209
-0.038395673
0.29624826
-0.15372422
0.13303871
0.29016811
0.1735222
-0.059298791
-0.11396546
-0.084458835
-0.006570457
-0.082689509
0.11462568
-0.13148476
0.15130663
-0.13605721
0.16289385
0.30499148
0.16034193
-0.10095741
-0.26544955
-0.17011866
0.043435983
-0.14315358
-0.26111278
-0.12216018
-0.038868982
-0.098199867
0.30990928
-0.1255413
-0.20128518
-0.20196679
0.0015072201
-0.0794167
-0.11798243
0.38938206
-0.062814891
-0.03960624
0.205635
-0.03465014
0.016678853
-0.1305397
-0.25586092
-0.060064264
0.063037656
0.22431903
0.32050383
0.021139009
0.023283264
0.28292614
-0.045211773
-0.021218088
0.1746926
-0.0069245961
0.0029239047
0.37515864
-0.14050435
0.16763474
0.10763621
0.35980484
-0.045409665
-0.25629938
-0.090886541
-0.17295508
0.18356323
-0.0023448446
0.17180432
0.11211116
-0.27178693
-0.18946947
-0.21749438
0.14593895
-0.12144477
-0.042923756
-0.10896471
-0.034935161
0.22413211
0.24849881
0.083055936
-0.0057812659
0.48701322
-0.10177832
-0.1224374
-0.077211156
0.093254618
0.55675584
-0.088440955
0.26306337
0.19627149
0.068130694
-0.13408805
0.2813603
-0.059108667
-0.0092117228
-0.30651066
0.11034384
-0.38718742
-0.10283043
0.13375598
-0.12012067
0.2770288
0.49713233
-0.2391405
-0.33672065
-0.19275701
-0.040315527
0.24710505
0.023987047
-0.53709787
0.13264795
-0.27299419
-0.08301878
-0.16357142
-0.16667713
-0.35060567
-0.038302105
0.0085598901
0.17111537
0.17141102
0.030393878
-0.056359489
0.13725132
-0.063249588
-1.356886
-0.15421671
-0.010383942
-0.21389337
-0.43299088
-0.51597899
-0.17899883
-0.013360609
1.4867098
-0.028856833
-0.011868408
-0.09751042
0.30281448
0.02298646
-0.18841518
0.05438336
-0.64889818
-0.44201255
-0.058234125
-0.071445577
-0.030458126
-0.93935061
0.53520977
0.59202862
0.95140678
0.49832925
0.42316648
0.36242187
0.10002139
1.7748939
0.41467935
0.26680693
0.80999589
0.023072962
0.5616048
0.95245898
-3.3357561
-0.0053995578
0.32286051
0.17444418
0.49247995
0.75509912
-1.5124922
0.023877058
0.1565304
-0.17073809
-0.43475136
-0.073181853
0.078639597
-0.36792472
-0.14717816
0.17281358
-0.0079591936
0.07278841
-0.020019677
0.17758948
-0.29272702
-0.30873933
0.19641334
0.21344231
-0.17286065
-0.013757701
0.26655477
-0.44967082
-0.31923434
0.20904465
0.11100908
-0.30778807
-0.029358976
-0.37936208
0.006208716
0.16349097
0.17933854
0.36577013
0.1278422
0.25111192
-0.071040668
-0.0097981514
0.57609487
0.028965959
0.23458645
-0.32800153
0.06720297
0.11439471
-0.054700602
-0.22314267
0.01979058
0.12736656
-0.094834477
-0.015224185
-0.052757666
0.36133441
0.39784229
-0.053830981
0.020742645
0.21911156
-0.18922478
-0.34796119
0.27608508
0.0019525993
-0.14021036
0.05909089
0.10437706
-0.045231197
0.4191772
0.14959759
-0.23667867
0.093286999
0.098173805
-0.14960793
0.106319
-0.19344017
0.20550513
0.16509692
-0.30009902
-0.37288618
0.011260873
-0.18070973
-0.12791042
0.20097454
-0.076899953
0.10703786
0.3708674
0.082878746
0.20576923
0.29858494
0.22897314
-0.39993849
0.020508554
0.0024858641
-0.0045738574
0.036845092
-0.22975312
0.18256024
-0.11122639
-0.24866481
-0.057911709
-0.010991749
-0.17884345
-0.18404731
0.12567553
0.19630943
0.037181113
-0.067431584
-0.23425519
0.091062024
0.61112368
0.07640668
-0.28495619
0.0060024918
-0.0011708145
0.069208212
0.041468836
-0.019267062
0.01619184
0.4302623
-0.23444659
-0.074415475
0.078981161
0.0071456791
-0.01662961
0.15860234
0.003156113
0.29343602
0.11736867
-0.2071843
0.19926547
0.22520182
-0.1523623
-0.088392839
-0.076155879
-0.077662766
0.0053532566
0.03444742
-0.050554693
0.0112255
0.089672491
0.023638425
-0.0093447976
-0.11625874
-0.040532846
-0.032228742
-0.012569222
0.14618637
-0.054003805
-0.027948979
-0.011414892
-0.023291396
-0.013526399
-0.059154902
-0.015329943
-0.012756097
0.011640079
0.012028489
-0.051600918
-0.042287257
-0.053184919
-0.097868212
-0.0069507775
0.031715356
-0.14044958
0.0084224977
-0.004876446
-0.031225145
0.20520173
0.00021298735
0.048414856
-0.077911623
-0.090902761
0.10408414
-0.074108154
-0.10377279
-0.029065412
0.029326428
0.076139316
-0.040394332
0.05554169
0.094891816
-0.070365064
-0.034034479
0.00068877608
-0.10337076
0.082016215
-0.014437717
-0.05389839
0.069981791
0.0027523506
0.040965468
-0.080260009
-0.023665179
0.042927481
-0.034816697
-0.063224472
0.016361311
-0.037160818
0.077225827
-0.031883415
-0.039379824
0.1124564
-0.0021322847
-0.036610961
0.022106469
-0.1296647
0.057707161
-0.093054213
-0.038409792
0.037766144
-0.013800179
-0.025364503
-0.080473475
-0.037894294
0.090262279
0.0083713951
-0.10128124
-0.090978712
-0.16876999
-0.011734433
0.0018781174
-0.10047317
-0.024552053
-0.10818031
-0.041345052
0.10786006
0.0080240844
-0.11403466
-0.073763855
0.077371962
0.0069774324
-0.089321598
-0.018066466
-0.06036932
0.035194445
0.19520028
0.032843065
-0.1533004
-0.068708107
-0.15973601
-0.10149083
0.020366574
-0.037982117
-0.1012461
-0.10837227
-0.074082084
0.056343835
-0.0028923105
-0.088686652
0.010975068
0.065482341
0.051696569
-0.14977737
-0.0013116978
-0.136957
0.011812625
0.18931369
0.064485647
-0.12503444
-0.081342317
-0.10107454
-0.012947139
-0.034936253
-0.14683051
-0.14124441
-0.08148472
-0.1870134
-0.15429164
-0.16359438
-0.16571027
-0.07539615
-0.16470526
0.17823517
-0.06650342
-0.066574574
-0.13001058
-0.13127865
-0.031605165
0.32832304
0.085659385
0.10818843
-0.02439107
-0.016067587
-0.012919269
0.046777155
0.10287662
-0.10128137
0.0019748074
-0.0030384308
-0.090864561
0.042458933
0.016059369
-0.09163145
0.027091006
0.03524407
0.13644315
-0.12094182
-0.025272494
0.1468333
0.25003415
-0.02230316
0.027530173
-0.088823363
-0.053242806
-0.042853922
0.050554782
0.029913396
0.095420174
-0.0364183
-0.03720722
-0.058744129
-0.032751754
0.018048519
0.069253087
-0.037547138
-0.15692756
-0.079316638
-0.084707327
-0.0024379941
0.11290088
0.24163412
-0.13162483
0.053168483
-0.024213411
-0.073450468
-0.031880107
0.027054837
-0.07605163
0.024488952
4.230583e-05
-0.092027433
-0.21841256
0.018945072
-0.047740631
-0.13965072
0.025059002
-0.0061656935
0.040367454
-0.090583228
-0.084379733
-0.12765303
0.072419852
-0.10579728
0.053447299
-0.10576281
-0.11874305
-0.11956136
0.018656962
-0.044237286
-0.070504002
-0.035772819
-0.029462755
-0.064611793
0.0087552108
0.082273044
-0.02734579
0.12228613
-0.044067606
0.044506043
0.0097649274
-0.068293251
-0.03095649
0.032023635
-0.057020556
0.09917891
-0.12474682
-0.14725013
-0.026053533
-0.048134632
-0.12335068
-0.031567588
-0.024076566
-0.09131787
-0.10981479
0.036420252
-0.01577819
-0.036292445
0.035384879
-0.067154624
0.063201562
-0.087376468
-0.0081873974
-0.081656508
-0.049373653
-0.06400387
0.10989932
-0.069135554
-0.057910111
-0.035186056
0.020456275
-0.022893537
-0.065416776
0.021689946
-0.071445808
-0.1135843
0.046582591
-0.068793364
-0.04895886
-0.091115497
-0.051058382
-0.0009552738
-0.058661144
-0.020962855
-0.057330761
-0.044426147
-0.083904929
0.13270879
0.0013177434
-0.047156692
-0.04126114
0.10270394
-0.0042585121
-0.11496484
0.042956602
-0.1014081
-0.12671033
0.023229817
0.017019078
-0.030489352
-0.016493862
-0.011578277
-0.019552292
-0.0067813322
-0.048693527
-0.062397901
0.03491481
-0.12914535
0.023435855
-0.0093181552
-0.11051944
-0.057943955
-0.062307242
0.0050634914
-0.15017232
0.0204089
0.0072568692
-0.010146835
0.050515182
0.083297394
-0.047116738
-0.078848094
-0.051191956
0.047006827
-0.015255494
-0.042259436
-0.0053741387
0.020078776
0.34691271
0.17922579
-0.01388755
0.11576555
-0.099574558
0.053079873
0.1969521
0.13785735
-0.01619463
0.065737359
0.30095384
0.44377419
0.09221524
0.010176333
-0.15120679
-0.024398284
-0.023404673
-0.2477037
0.10104685
-0.051660988
0.14600228
0.070265278
0.015308838
0.185792
-0.0070090475
0.2269422
-0.11157642
0.11710227
0.13054432
-0.11669017
0.0078972988
0.14211002
0.080272906
-0.03398573
0.21748127
0.20819014
-0.10684649
-0.026889054
-0.10858525
-0.079837158
-0.040243376
0.0021240418
0.29332113
0.15408385
-0.00083209935
0.033153396
0.0073323082
-0.09063337
0.058399927
-0.0053759171
-0.084410273
0.17438251
0.050853394
-0.022210896
0.041141715
0.12967205
0.11798576
-0.039428897
-0.13305235
-0.35229653
2.4993406e-05
0.17384914
-0.028371295
0.10008746
0.21338306
-0.085773677
0.024913944
-0.24983215
0.15147172
0.26486221
0.01779088
-0.0051151812
0.056952007
0.32690865
0.095653243
0.01532323
0.13270167
0.21702528
-0.092901006
-0.16415092
-0.085182339
-0.031518266
0.29212156
-0.080249704
0.10373424
-0.20637089
-0.14791758
-0.077163741
0.085244931
-0.26382267
-0.27926555
-0.053037871
-0.33240589
0.28133231
0.16103993
-0.45712405
-0.088314883
0.21413478
0.11554446
-0.17477697
-0.51062787
-0.047474928
-0.041247044
0.2034612
-0.20740661
0.48105913
-0.38078797
-0.4720695
-0.081088781
0.096632555
-0.075439095
0.11747348
-0.6302349
-0.070119381
0.43608078
0.45584279
-0.33640116
0.20469896
0.38979763
-0.26712465
-0.43135405
-0.49447989
-0.0066006472
0.1270944
0.23588791
-0.0144348
0.66823268
-0.050634567
0.11658622
0.46319804
0.13417161
-0.06400419
0.65109921
-0.014665187
-0.015064703
-0.048557162
0.38148323
0.01107517
0.092164531
-0.12331402
0.24471462
0.55577791
-0.57068461
0.019997356
-0.087986186
-0.25297695
0.11693373
0.33280531
-0.69264466
-0.063132621
-0.018368792
0.077546462
-0.17149118
-0.25631952
0.60690302
-0.28104338
0.13055852
0.17668411
-0.63387209
-0.0095143467
0.089781925
-0.86370492
-0.52934951
-1.037869
-0.032725886
-0.44108516
0.19133319
0.015564572
0.18533805
0.35885224
0.46456674
0.56315309
-0.11484646
0.15716793
0.51127589
0.48643681
0.015640078
-0.15836878
0.0093422886
0.4236322
-0.053675681
-0.23730758
0.22573376
0.18909042
0.055368528
-0.2419928
-0.20385458
-0.47586849
0.1616673
0.27358264
-0.048244793
0.011422623
-0.033879306
-0.18349104
-0.30782077
0.053103458
0.1483269
-0.2835359
-0.088094033
0.18744045
-0.32654518
0.15738733
0.027900185
0.073917508
-0.36304334
-0.57240123
-0.12306442
-0.11168915
-0.06424278
0.036319457
0.1353685
0.29054934
0.30854943
0.068677612
-0.061551128
0.0018911455
0.092471771
0.1050849
0.085558251
0.35650387
0.20829092
0.35188022
0.26428601
0.039301403
-0.64361179
-0.097723164
-0.18758678
-0.04022688
0.055403009
0.084462009
0.26009238
0.33519393
-0.068988234
0.029401463
-0.097407371
-0.16348286
-0.21156806
0.22187182
-0.01537678
0.0088436743
0.14675762
0.35210019
0.053558324
0.11929552
-0.10326657
0.044048436
-0.024487173
-0.078707524
-0.0657878
-0.29971018
-0.22460943
0.2989417
0.1997911
0.16408515
0.1144767
-0.10630055
0.12911114
-0.26391283
0.15798004
-0.012575199
-0.11622781
0.3986212
0.33312875
0.16301775
0.13106762
0.18603827
-0.40801966
-0.11935311
-0.13470626
0.0036922044
0.089900307
0.24994764
0.23518544
0.31510261
0.18148111
0.18309774
0.1203526
-0.041803852
-0.21936214
0.10805062
0.075996071
0.057403892
0.0019134824
0.08040788
0.13000634
-0.095051065
0.12605518
-0.17778319
-0.031516951
-0.043786671
-0.11383016
0.076697752
-0.056788839
0.36378765
0.3580431
0.17313625
0.067813255
0.088729799
-0.052684922
-0.18406183
0.047377571
0.24084215
-0.078228839
0.29421291
0.033980686
0.1616556
-0.16483511
-0.03728212
-0.060355257
0.050707027
-0.19383642
0.075951941
-0.11492324
-0.036719292
0.15277013
-0.20562223
-7.6862605e-05
-0.0043856031
0.061882455
0.099529289
-0.048644569
0.03444222
-0.067059614
0.070579752
-0.084243633
-0.013619374
0.065665089
-0.32020515
0.090539061
0.14548241
-0.094676338
-0.080669306
0.10533936
0.021275425
0.071492068
-0.43120593
-0.055648435
0.23959862
-0.28082076
0.13579975
0.30001003
-0.12574273
-0.26833075
-0.43114355
-0.016192393
0.22605103
0.12307162
0.22384961
-0.087932549
-0.077078559
-0.39482924
-0.10715782
-0.15456782
0.15634735
-0.093438573
0.11264443
-0.49972585
-0.10016359
-0.20507786
-0.053071175
0.042500209
0.1677195
0.012455954
-0.020954495
-0.49789506
0.36302713
0.096970111
0.11981662
-0.18138777
0.023926094
-0.1333337
-0.19057524
-0.058964003
-0.22424325
0.14104798
-0.095128618
0.027125122
-0.40224713
0.2210407
-0.11758719
-0.31544256
-0.095605657
0.15092012
0.063515313
0.3462047
-0.62474889
0.16726664
0.29416969
-0.17451422
-0.21342099
0.033246752
-0.11987772
-0.21983232
-0.29019737
-0.38969707
0.40740976
0.15486436
0.26837856
-0.18651243
0.33264711
-0.054668535
-0.011360408
0.27592611
0.078363366
-0.15427507
0.15731493
-0.72847801
-0.29157674
-0.030355491
0.30373022
-0.0072527025
0.22567274
-0.033537552
-0.06533955
-0.38667801
-0.3709271
0.13402131
-0.006806748
-0.24246186
0.016343888
0.37498263
0.25738084
-0.11700163
-0.27490097
0.29067922
0.00082026457
0.31680974
-0.87248194
0.15904197
0.0094982628
0.11123484
-0.15508373
0.38300636
-0.19684567
0.31925276
0.40367451
-0.095363319
0.29281363
-0.031587929
-0.45398533
0.2013149
-0.38650715
-0.22401422
0.7773214
0.64064699
-0.23437415
-0.37233439
-0.37557217
0.83979332
0.20871587
-0.53089797
-0.1464517
-0.18690993
-0.43466562
-0.39643604
-0.47390637
-0.27297828
-0.19811568
-0.083765224
-0.40305144
-0.62275159
1.0583518
0.68898076
0.30569392
0.050962836
-0.08014182
0.38796097
0.42518651
-0.11917862
-0.03312467
0.34967479
0.034102745
0.433727
-0.21046868
0.3750844
0.10445302
-0.65325719
-0.44996703
-0.19922268
0.32937071
-0.31172118
-0.036666527
0.63978881
-0.9841609
-0.0073501039
0.60172492
0.43527734
-0.60250217
-0.65646553
-0.66669619
0.097520143
-0.18039706
-0.86159849
-0.61027396
-0.033777144
0.025350008
-0.44241494
0.41041687
0.32667798
0.52760333
0.15461734
-0.64057326
-1.2638055
0.87707609
0.39584422
-0.18956664
-0.084257767
0.11434744
-0.034874149
0.3008709
0.18598658
0.071366601
0.25687155
0.3059383
0.43229547
-0.19514674
0.4495171
0.38962004
-0.30892467
-0.15418956
-0.24789578
0.65070826
0.17683798
0.17109153
0.18910885
-0.13597235
0.03089045
0.18455547
0.2391347
0.1374463
-0.31858203
0.31620669
-0.15838562
-0.052874073
-0.10790759
-0.10981328
-0.053317782
0.11238227
-0.019811651
-0.033163246
0.17136505
0.31935662
0.067412183
-0.23955268
-0.4398284
-0.11303446
0.25047848
-0.17806529
-0.32694536
0.43803939
0.093581744
0.084255911
0.23172592
-0.046062522
-0.018706691
-0.37428579
-0.039447192
-0.082956955
0.25950858
-0.008488779
-0.15249212
-0.15201892
-0.085836664
0.18696544
-0.19260052
-0.19307847
-0.34427243
-0.19387588
0.12776722
0.036781363
-0.12876685
0.34043106
-0.1094589
0.14215164
-0.019251173
-0.25897413
0.16886109
-0.15205066
-0.022264857
0.12982565
0.21086706
-0.54006195
-0.20855293
0.12052162
0.055368155
0.007265667
-0.12706538
-0.45977688
0.10758797
0.20468467
-0.37338772
0.14311373
0.12474954
-0.034728341
0.092284724
-0.33435044
-0.31070456
-0.29193357
-0.17363684
-0.18674524
-0.090937749
-0.22740585
0.032927133
-0.21898165
-0.17357904
-0.075496227
0.089955866
-0.022024773
-0.73690104
0.030406624
0.032325327
-0.24469498
0.21583772
-0.1502095
0.10014592
0.12689327
0.082364306
-0.20296739
-0.053922568
0.20145316
0.012706471
0.22241622
0.050564703
-0.27544376
-0.32864168
0.063824944
0.22558685
-0.08558441
-0.23882151
-0.8080852
0.310599
0.02236867
-0.085519955
0.072566979
0.19572359
-0.089196488
0.093067221
-0.23578146
0.029511588
-0.097124279
0.094980218
-0.021100538
0.048374929
-0.026065523
-0.16406207
-0.071316846
0.034152456
-0.068292767
0.017754324
-0.22019812
0.23778062
0.47216639
0.22282
0.083167896
0.012326703
-0.099329747
-0.063125372
0.12034069
-0.081721514
0.12685885
0.060012467
0.29714438
0.087596245
-0.073491693
0.051448226
0.045049842
-0.37965205
-0.15284061
-0.047710121
-0.2731249
-0.23700881
0.32375804
0.073037647
0.10074826
0.35780951
0.23951837
0.13874732
-0.10665319
0.15613738
0.39767498
0.037654862
-0.041918296
0.097611636
0.3105309
0.15918784
-0.064371355
0.33374685
-0.043297343
-0.1042155
-0.13410981
-0.16128379
-0.29558566
0.092882469
-0.14310816
-0.016576339
0.47511798
0.41083467
-0.27431065
-0.13696861
-0.44595426
0.55469555
-0.0024441355
-0.186837
-0.17033409
0.16627938
-0.19464785
-0.03796991
0.21937396
-0.42149672
-0.22342092
-0.35664204
-0.019661987
0.00081490941
0.0017516224
-0.18919446
0.27467772
0.21670306
0.32752976
-0.16953374
0.0016163862
0.10619835
0.67445791
0.23750308
-0.2322056
-0.21908934
0.50001132
-0.11697365
0.061780125
0.17604172
-0.36864662
0.2758733
-0.13133825
-0.063295543
-0.15591347
0.088166267
0.23338348
-0.10243049
0.14429286
-0.30091867
-0.006206301
-0.36445904
-0.34460187
-0.25138953
-0.31481531
0.17625976
-0.39628124
-0.22211722
-0.39024436
-0.042922508
0.36712316
-0.2370767
-0.10191941
-0.065687656
0.18873137
0.59960765
-0.26322076
-0.059873901
-0.18627328
-0.40921378
0.0058637694
0.012717893
-0.054058146
-0.66269761
-0.56115794
0.10439844
0.211724
-0.33697227
-0.03126125
0.02636292
0.004333551
-0.63098842
-0.95668036
0.003406795
0.15662587
-0.050121259
0.56438291
-0.80819672
-0.081320561
0.36939317
-0.25002718
-0.71025395
0.46307555
-0.4921127
0.57383704
-0.14558686
0.2067989
0.65397274
0.24822079
-0.20122734
-0.23312707
0.010448921
-0.45623294
0.47870219
0.056010798
0.28460166
0.28689584
0.47124085
-0.49440095
0.50203985
-0.75221831
-0.82550728
-0.75924063
0.20345335
-0.56972528
-0.75127769
0.61282229
-0.16492444
0.34416577
-0.4421483
-0.82377768
-0.13915963
0.33450383
-1.8655479
-0.82103205
-0.89188564
-0.062446278
-0.44689238
1.479661
-0.65691268
-0.46114901
0.53559738
0.30697054
-0.027540652
-0.02944348
-0.4080095
0.40356013
0.0015536906
0.17492887
0.21257567
-0.26564503
-0.21884485
-0.047932282
0.25529405
0.039264537
0.32725897
0.20145567
0.045414861
0.29140204
0.24521008
-0.4394075
0.22255854
-0.12593082
-0.34979618
-0.22740166
0.49163485
-0.17221583
-0.35520539
-0.027176218
-0.1592287
-0.14351872
-0.11694129
-0.87389433
0.44308349
0.17181487
-0.25691411
-0.44000316
-0.67970729
-0.097631685
-0.1291851
0.87318802
-0.6031599
-0.22339545
0.24076314
0.18708213
0.18075794
0.14757785
-0.070924886
-0.15581265
-0.21784252
0.12160075
0.14251903
-0.42862907
0.13034992
0.038024727
-0.22951201
0.014386942
0.11016575
0.0094214883
0.36867183
0.025101688
-0.13458259
-0.65260631
0.11964002
0.062396333
-0.057182461
0.26415494
-0.18816459
-0.27996907
-0.065444663
-0.085837007
-0.085188121
-0.0018946591
-0.016128186
-0.33075175
0.049235482
0.010079954
-0.12880309
-0.10460133
-0.063432418
0.22080003
-0.0025931587
-0.046156108
-0.532184
-0.41890377
0.12450353
0.22202805
0.30956635
0.15627792
-0.15945342
-0.27039307
0.065051325
0.037048675
0.32033715
-0.50957066
-0.086399183
-0.10763779
-0.18476044
0.1086613
0.067215711
-0.16842262
0.14251234
0.032002322
-0.23132929
-0.37866947
-0.15988804
-0.025563277
0.10464288
0.42599544
-0.0055741095
-0.24005969
-0.2670173
0.31217998
-0.18677971
0.018342715
0.13569255
0.038269926
0.077613361
0.0083049778
0.29380324
0.052422624
-0.075491913
0.15471193
0.2538594
-0.33284622
-0.022972668
-0.41743547
-0.25693128
0.11710918
-0.24490602
0.099405482
0.039834939
-0.099679023
0.026046041
0.2502588
0.13687707
-0.36423308
-0.4461053
0.03521606
0.039160799
-0.15662238
0.055392824
-0.19524637
-0.21721496
-0.063099444
-0.17081326
-0.81462628
-0.28072444
-0.33394894
0.13606146
-0.36362979
-0.052961752
0.1878358
-0.1763318
0.044367958
0.13932596
0.22232658
-0.41360477
-0.27572665
0.2384617
-0.065414026
0.049884714
-0.0088311452
-0.019777898
0.083770104
-0.079017125
-0.15277523
-0.55957621
-0.31566679
-0.328565
0.03246212
0.00090143509
0.0076641967
-0.23798642
-0.17459324
-0.089400642
0.097941317
-0.031350888
-0.19356748
-0.33062762
0.25325608
0.074291535
0.032025736
0.31302622
-0.067550786
0.21242337
-0.263969
0.0013969406
-0.51823562
-0.37398404
-0.32274941
-0.11978827
-0.11110878
0.013216926
-0.37715629
-0.18028264
-0.0015402575
0.12923989
-0.014900127
-0.16601722
-0.37523025
-0.032144774
0.0021736945
-0.015777919
0.37368351
-0.17427222
-0.19582023
-0.13149357
0.00093773176
-0.64828807
-0.018886928
-0.13434224
-0.11096968
-0.55923837
0.012732999
-0.3130075
0.035695285
0.11520375
-0.021023573
0.28552172
-0.14340527
-0.30192739
0.15797271
-0.12021613
-0.17475893
-0.090234064
0.05367263
0.050303333
0.12145377
-0.44060475
-0.32966799
-0.10667011
0.12491801
0.17041196
-0.18250243
0.19985689
0.023146832
0.31993508
0.47876528
0.091768175
0.21645111
0.14056426
-0.65810972
-0.066923536
0.0081373937
0.28113142
-0.023083689
0.2972545
0.21866016
0.21357332
0.0088397721
-0.11372897
0.11573328
-0.2533491
-0.048062548
-0.23820318
0.0099058822
0.10490632
-0.25957856
-0.17622992
0.042630479
-0.13153274
0.22694904
-0.39446101
0.055431489
-0.32701623
-0.060629014
-0.34029168
0.32341692
0.31201962
0.017611686
0.14374439
-0.83293843
0.55335462
-0.78338528
-0.6600132
-1.2793779
-0.20693855
0.0080208108
-0.73014396
-0.30671483
-0.48507074
0.52525955
-0.19474709
-0.84830379
0.17892677
-0.015180612
-0.37856162
-0.43857291
0.12700535
0.043526173
-0.47613272
-0.20936891
-1.2067479
0.22177842
0.19217367
-0.63037705
-0.73354632
0.083492748
0.035153035
-0.019559596
-0.088055335
-0.076080002
0.58261323
0.30322269
-0.37108704
0.13782877
0.085577764
0.25658962
-0.065113723
0.19780973
0.19091025
0.026032861
-0.038353983
-0.54254442
0.37114519
0.40495121
-0.25040597
0.43001208
0.18369329
-0.024908114
0.31745166
-0.28636554
0.27997565
0.29555717
0.040772077
-0.031821325
0.18104953
0.048196305
-0.18308033
0.10718005
0.47730029
0.2316934
0.59303612
0.026395964
-0.060756333
0.78390408
-0.043137494
-0.39699489
-0.57129961
0.19144829
-0.086813323
-0.32068926
-0.67257428
0.15749434
0.35903615
0.21230365
-0.31527355
0.34625751
-0.042398356
-0.99684805
-0.20175089
0.15070851
-0.059089102
0.37668779
-0.35838893
-0.10193992
0.89839959
-0.49926713
-0.50515538
-0.87779844
0.19519384
-0.3746416
-0.90748471
-0.62193733
-0.34268755
0.0012740892
0.70726848
-0.54546237
0.42159119
0.070970953
-0.64497066
0.21523258
-0.17752205
0.083235174
-0.11145579
-0.47182161
-0.31722605
0.50017881
-0.048648007
0.0053441017
-0.13151798
0.11796723
0.083516896
-0.15920836
-0.099829786
-0.023167735
-0.042483784
0.42058748
0.17847656
0.18739761
0.057787694
-0.40606827
0.0079373401
-0.14504367
0.26602927
-0.13275093
-0.19642353
-0.25873142
0.53682679
-0.063000008
0.1210724
-0.36768651
0.19988716
0.17279567
0.041210294
-0.038960256
0.43733874
0.069756739
0.2909238
0.2674576
0.20764047
0.080648825
-0.71738052
-0.0068873311
-0.18483935
0.066677071
0.007246261
-0.47527236
-0.26638666
0.58203566
-0.18453626
-0.13140197
-0.76102698
0.16685703
0.14067014
-0.1071848
-0.12643373
0.22128654
0.13894928
0.51672447
-0.57240736
0.17274798
-0.17700417
-0.79853576
-0.0043265768
-0.026473399
0.10294763
-0.0056337086
-0.45987943
-0.75589544
0.013146469
0.31904447
-0.13035476
0.21603438
-0.13199824
0.14334871
0.1308752
0.14297971
-0.036065236
-0.065311022
0.27756941
-0.30303097
-0.018458288
0.08806619
0.10603061
0.19753119
0.087569408
-0.11793074
-0.11718121
0.010552499
0.28192598
-0.20230903
0.028212816
-0.02511812
-0.13752282
0.039327882
-0.014474987
0.15178683
0.062971033
0.068937376
0.16573748
0.18563536
0.021027042
0.14274254
-0.09571664
-0.046472538
0.081853807
0.059290599
-0.085243933
0.11206428
-0.22920832
0.13974541
-0.056611057
0.076682195
0.23044899
-0.20446523
0.19540815
-0.25501835
0.10024367
0.019718358
0.003944023
-0.012286505
0.21009427
-0.016304815
0.0027871153
-0.078324638
0.095997803
0.043731622
0.17223139
0.013939451
0.025585586
0.1150849
0.14508699
0.1741136
-0.07374724
0.1700134
0.090169042
0.007073022
0.1221771
0.13043158
0.046357874
0.14698517
0.2665101
-0.0066034221
0.094211087
0.024704665
0.20988084
-0.076777585
0.030730933
-0.058067419
-0.23367916
0.080456838
0.099571027
0.18633714
0.16414821
-0.17235979
-0.30362386
0.099686421
-0.34065789
-0.01856474
-0.38068494
-0.38236535
-0.041189045
0.058769405
0.19577262
-0.082727432
-0.29824552
-0.19977809
-0.33525196
0.12275456
-0.1337309
-0.16491666
0.20034641
-0.012871226
0.048205744
0.21649143
0.14845254
-0.22351471
0.016314762
0.25509852
0.23847513
0.43553057
0.21935588
0.077790834
0.27354732
-0.07535816
0.06666588
-0.15240632
0.35960287
0.34464651
-0.0098748663
-0.091668166
0.24681252
0.15546842
-0.1947404
0.41079298
0.7712422
0.66022092
-0.096080199
-0.36728093
0.20508876
0.45477921
1.1556791
0.54181343
-0.15750815
0.52213806
0.22685632
0.6348834
-0.0019836689
-0.03072359
0.16661693
-0.40681621
-0.46959856
0.17611675
0.31945497
0.36251852
1.4834046
-0.28488058
-0.45412371
0.56096858
0.45687222
0.47721222
-0.017402014
-0.082120292
-0.18849188
0.10264467
-0.32591724
-0.061978072
-0.028326174
-0.22317784
0.15431662
-1.0025595
0.53437853
0.2279685
-0.33708563
-0.17793536
-0.21263416
0.83947963
-0.8598454
-0.22598444
0.17765135
-0.8084113
0.013063146
-0.28990024
-1.1225265
-0.10585463
-0.056158964
0.0055739456
0.35934386
-0.10908566
-0.031513013
0.11906764
-0.25961733
-0.38440052
0.12360051
-0.52404469
-0.12789078
0.13913217
0.30228481
-0.89210463
0.57998616
0.78365767
-0.188448
0.27292821
-0.69778341
-0.49263197
1.0343901
-0.098956004
0.11673262
0.041334823
0.16320574
-0.26965877
0.24858256
1.3582155
0.80647898
0.032170281
0.00043952753
0.18413472
0.046346791
0.45229718
-0.72119576
0.017103499
0.56781268
1.2168882
-0.064455092
-0.11668013
0.70892429
0.93243051
0.47599506
-0.15041779
-0.18642883
0.50805134
-0.42609847
0.26168349
1.6443537
0.097140759
0.57676041
-0.026814448
0.15362242
0.25420627
0.67072785
-0.64271539
-0.44686931
-0.44436952
-0.02033402
-0.24900234
-0.22779511
-0.5393365
0.20017318
0.062705375
-0.17444384
-0.23088537
-0.066885963
-0.36887813
0.059355564
0.76694012
0.39423448
0.16378085
-0.15097021
0.077100486
0.23728077
0.36312142
-0.64810872
-0.48973653
-0.48539475
0.26123753
0.1338193
-0.33131269
-0.21807992
0.069369316
-0.12799138
-0.060756095
-0.055608973
-0.42273542
-0.20463571
0.32251188
0.37557226
0.33533794
-0.21288164
-0.03428679
-0.15933073
0.6520161
0.12456139
-0.41540453
0.058814157
0.027282115
0.47602892
-0.017882742
0.16938251
-0.074445464
0.19119269
-0.047494538
-0.38274461
-0.15278254
0.19322804
-0.35057995
0.17681699
0.6840542
0.2495936
0.14969333
-0.10542303
-0.16335495
0.7819649
0.32002947
-0.26117828
0.16602862
0.22782059
0.18744975
-0.18912604
-0.022808323
-0.081775367
-0.077087015
-0.073408164
-0.17081511
-0.40235972
-0.044734985
-0.26501718
-0.039981112
0.39047459
0.094938777
0.30705297
0.1965744
-0.055718262
0.071531087
0.77749604
-0.32110834
-0.061215498
-0.14817667
-0.32122797
-0.0010270193
-0.12726262
-0.17796263
0.00045385188
0.17557475
-0.11602378
-0.36690176
-0.329072
0.086736456
0.10856646
-0.11470932
-0.049220841
-0.2100565
0.033810049
0.10054189
-0.17230356
-0.67612535
0.056604981
-0.057529204
-0.19483475
0.10141383
-0.15616629
-0.32063091
0.16733696
-0.19743429
0.13840789
-0.0098943971
-0.031978466
-0.21966276
0.003412494
0.031124627
0.091430239
0.015723305
-0.088169411
0.11543548
0.21233468
-0.070479192
-0.53008473
0.093370438
0.048327364
-0.18462488
-0.11636661
-0.32237089
-0.028366746
0.025388634
-0.35141122
0.061629388
-0.18999413
-0.16159199
-0.20471784
0.24115953
-0.17548472
-0.12936065
-0.054055218
0.081724584
0.043033671
-0.10440832
0.0088468231
-0.40268362
-0.2592954
-0.20750141
-0.41020215
0.046975266
-0.079324804
-0.32500815
0.26161134
-0.32396454
-0.42023954
-0.11357114
0.10293399
-0.2406441
-0.20046367
0.0058015101
-0.013160446
-0.044185467
0.13627811
0.23546618
-0.34099653
-0.017752271
-0.1214396
0.021826971
0.12594813
0.12585329
0.20299625
-0.19629489
-0.060632709
0.25338042
-0.23158152
-0.028179012
0.13377337
0.21909706
-0.10515057
0.018352147
0.057630938
-0.010525991
-0.23130852
0.034575231
0.1809922
0.19702817
-0.064078338
0.053882323
0.0097374348
-0.22096077
0.3551718
0.47670794
0.16812792
-0.046733491
0.10931728
0.1486232
-0.15900467
0.1117171
0.058907907
-0.25823176
-0.13179767
0.059265159
-0.31096867
0.033856504
0.091775201
0.27071819
0.010856288
0.070972487
0.27505857
0.052495882
-0.14466855
-0.057065334
0.0714662
-0.14211197
-0.048794575
-0.042235188
0.24572027
0.071840249
-0.38101631
0.16051453
-0.0040604267
0.18932158
-0.002429724
-0.24913011
-0.027326036
-0.24463272
0.059456442
-0.074350752
-0.28859979
0.80209297
0.37815878
0.21231343
0.70997918
0.99737626
0.3537446
0.5227657
0.29535452
0.03044742
0.31708315
-0.15893355
0.31190318
0.29671279
0.33880031
0.22530508
-0.51551127
0.99051178
0.25919417
0.13460135
-0.08537101
-0.19384149
0.68444693
-0.54862756
-0.48469803
-0.4411248
-0.17001286
-0.23691382
-0.54084462
-0.2700071
0.56333518
-0.032154519
-0.65324998
-0.67249703
-0.40230939
-0.074970238
-0.41726917
1.1058273
-0.53708023
-0.37282327
-0.2358456
-0.3884263
-0.85435927
0.83510453
0.17441903
0.027609415
0.27825254
0.30577284
-0.037985038
0.26701656
0.39217424
0.21301621
0.18455349
-0.16843751
0.016408039
0.095466994
0.32504004
-0.13191262
-1.1969305
0.021991115
-0.10247075
-0.035122257
-0.073770911
-0.30233663
0.31821477
0.13771996
-0.060556609
-0.21785453
-0.30524799
0.15097836
0.1616953
0.26428807
-0.6149382
0.31852156
0.033164393
-0.14857365
-0.27024186
0.010534657
-0.19248202
-0.10201473
-0.054506499
0.089261152
-0.074328229
0.23976438
-0.14166042
-0.096684076
-0.081786431
-0.051410038
-0.38874403
-0.79473877
0.27784878
-0.10251945
-0.25661841
0.20176855
0.034177277
0.37325823
0.069509201
-0.34557989
-0.036660053
-0.025707161
-0.71529114
-0.6507234
-0.49087101
-0.061601613
-0.045145269
0.4146111
-0.3100369
-0.022008264
0.34886628
-0.16378142
-0.16622268
0.26362413
0.014967882
0.32530892
-0.042153712
0.20317975
0.17098005
0.18834174
0.42042047
-0.038309153
0.20188269
-0.17521316
-0.088268802
0.11305806
-0.0026331437
0.30644107
0.38961709
-0.33525306
-0.23751436
-0.048489336
-0.12143607
-0.038102102
0.26406789
0.034396209
-0.18510509
-0.0034784072
-0.1836849
0.26970157
0.25327957
-0.2791442
0.029313801
0.22419988
-0.017338939
-0.22663884
-0.1844911
-0.096412122
-0.17815439
0.45703816
-0.48164827
-0.42845568
0.14543575
-0.010890499
0.10212582
0.10142116
-0.36256874
-0.1951497
-0.16191769
-0.10429635
0.00079234282
-0.051832799
0.22306995
-0.023730047
0.20309785
0.20733424
0.019143967
0.15316604
-0.003233074
0.12257484
0.24419941
-0.51033556
0.051477473
0.029354483
0.12623604
0.28979158
-0.021916896
-0.20494533
-0.11933737
-0.1854732
-0.035139635
0.14757453
0.053806026
0.057228755
-0.20673743
-0.14533924
-0.12951048
0.12243272
-0.2676563
0.091581061
0.06023686
0.14554437
-0.38964167
-0.0062921508
0.20124702
0.23310487
0.070058525
0.28432214
0.19894359
0.10665466
-0.14044532
0.036929723
-0.019672334
0.099753141
0.10442999
-0.060313921
-0.19051309
-0.1086008
0.34448731
0.24230917
0.24721085
-0.059130624
0.099282883
-0.31125331
-0.13451008
-0.24255426
0.17692117
0.10155611
-0.055738289
-0.025288969
-0.11442184
-0.067036726
-0.042555504
0.11328584
0.016178153
-0.31127873
-0.1095355
-0.091209047
-0.24341393
0.0081931986
-0.034635622
0.1686525
-0.26487735
0.14616807
-0.21158744
0.0369431
-0.3002533
0.10459273
-0.02589317
0.038540836
-0.093645193
-0.072335504
0.0039524087
-0.15037282
0.060690407
0.019279335
0.16610965
-0.010234908
-0.03963675
0.020210795
0.0069426512
0.12197258
0.46355608
0.036886491
0.18864308
-0.058432676
-0.18437757
-0.098379098
0.00053318869
0.038350057
0.32983822
0.11336889
0.16314797
0.041904129
0.064174645
0.35850799
-0.077286653
0.045872264
0.21517178
0.03574362
0.32528719
0.12270387
0.18609042
0.12541744
0.071768418
0.22527675
-0.010894044
-0.29781953
-0.28910819
0.26707363
0.28022754
0.17538096
0.26536784
-0.084201857
0.11485723
0.14343853
-0.16331728
-0.060356237
0.23233354
0.058630928
-0.23516397
-0.013980018
0.14945672
0.29918015
0.23724577
-0.090362541
-0.013054118
0.20102325
0.3857421
0.22071092
-0.51078576
-0.32922551
0.058674645
0.54885852
0.26647592
-0.18936424
0.42422107
0.12095912
0.065512903
0.043556176
-0.095347174
0.054941896
0.43722725
0.2909551
0.35694641
0.45317239
0.37653771
0.45849717
0.60872954
-0.85991037
-0.27963021
0.11741385
-0.15740569
-0.36194378
-0.30380639
-0.61495167
0.77391571
0.048502248
-0.59052563
-0.79864115
-0.34068856
-0.13057354
-0.28303021
0.8988111
-0.74258047
-0.49517101
-0.099211589
-0.51677281
-0.59605384
1.2162117
-0.8253727
-0.50164551
-0.49899891
-0.53896743
-0.27215365
-0.51458889
-0.67688024
0.58092266
-0.11201086
-0.3020058
-0.8963511
-0.5211997
-0.38806465
-0.49820638
0.77295703
-0.592731
-0.47695571
-0.045067374
-0.3429479
-0.48838085
0.913544
-0.40323907
-0.067484885
0.13278745
-0.20890713
-0.27996269
0.20340778
0.10238682
0.18606822
0.44640416
-0.14525321
-0.33529693
0.21018504
0.15993018
-0.1080813
-0.67168248
-0.040719844
0.57104659
0.10375595
-0.069701493
0.18987872
0.22041084
-0.057135586
0.086168483
0.14419189
-0.24826124
0.20787583
-0.44776618
-0.2453398
0.063111588
0.26875716
-0.12923713
-0.048009723
-0.0079923104
-0.058065813
0.033369027
-0.14307073
0.064033374
0.054855231
0.17515787
0.046725795
0.32832554
0.035485279
-0.17136534
0.2542221
0.2366697
-0.20036088
0.28518733
-0.18338227
-0.10716913
0.29053074
0.25351927
0.087942258
-0.062380329
-0.014752447
-0.29089662
0.11233902
-0.12431764
0.42584264
0.20330732
0.19436729
0.16833977
-0.0091010602
-0.057625152
0.12324246
0.38741323
0.039524529
-0.14237487
0.15978125
0.24962503
-0.041981746
0.17676321
0.088528097
-0.30049172
0.042598955
-0.24468641
-0.13332394
-0.15659106
-0.12366617
0.31898355
0.31901976
0.3515704
-0.07995791
0.25462073
-0.13550198
-0.20771743
-0.042121194
-0.015989803
0.1168254
-0.0095562488
-0.12632187
0.031166228
0.14650321
-0.10478493
-0.048605248
-0.25201783
-0.19310059
0.16927557
-0.20710123
0.079723299
0.16811988
0.17888583
0.22448042
-0.11120693
0.010640803
-0.052807212
-0.20485471
-0.19178708
-0.19262302
0.24864955
0.16588992
-0.2482032
-0.26907906
0.23184097
-0.1008442
-0.13149589
-0.061302189
-0.41397947
-0.22987852
-0.26151034
-0.082783461
0.038345121
-0.14713711
0.18772703
0.11692735
-0.18426688
-0.21301697
-0.26222134
0.064181007
-0.05459103
0.017337319
0.056345396
0.035057548
-0.12270551
0.086555384
0.022521811
-0.018585587
-0.16407442
0.12391669
-0.070748284
-0.106606
0.16236927
-0.029123483
0.08828517
-0.13090017
-0.21690665
0.072167419
-0.027999077
-0.22429618
-0.010941678
-0.0038851455
-0.061734065
-0.076517396
-0.070863791
-0.060972463
-0.057966523
-0.029590601
0.055602353
-0.27112049
0.02605113
-0.071586899
-0.0025304393
0.10057407
-0.088164315
0.0007622214
-0.087669834
-0.13191733
0.20203157
0.00426349
-0.15112661
-0.0174492
-0.069000967
-0.024081089
0.086945534
-0.12645602
-0.04470291
-0.14372677
-0.03254731
0.16900198
-0.087487303
0.01172353
-0.106277
0.041660834
0.047907412
-0.073392138
0.14722905
-0.040706541
0.069760866
0.291051
-0.067660674
-0.19425714
-0.22286777
-0.15679321
-0.056809582
0.059038404
-0.23006022
-0.12967037
-0.050214171
0.015789602
0.18858908
0.035500474
-0.10992967
0.040136795
0.088337325
-0.074116156
-0.10744675
-0.13054277
0.02942835
0.17275773
0.29141185
-0.010430724
-0.13161241
-0.17334092
-0.30534279
-0.21047476
0.033185992
0.040966809
-0.032689974
-0.0014125004
-0.034925673
0.13363843
-0.15811639
-0.09700124
-0.034338515
0.012369596
-0.081751168
-0.18107964
-0.11301666
-0.13189724
0.0098042646
0.22782783
0.044270627
-0.091810964
-0.16983534
-0.1996453
0.045580253
0.21026419
-0.042191584
-0.10940931
-0.24991995
-0.080444589
0.084039718
-0.029721005
-0.13225609
-0.0090120016
0.05958255
-0.20389321
-0.087174647
0.17508821
-0.14229675
0.01592949
0.30119616
0.0060226172
-0.17294443
-0.13131291
0.028961303
0.0015506102
-0.048331842
-0.068815663
0.018290136
-0.13881394
-0.19593914
-0.36244842
-0.39933404
-0.11698584
-0.14314406
-0.38151813
0.32947555
-0.018696986
0.062173478
-0.21632507
-0.18469571
-0.2174432
0.31969294
0.11569914
0.14818582
0.24932484
0.11854733
0.0026944119
0.15543427
0.26670468
-0.059602089
0.0013026888
-0.081959836
-0.28282943
0.063555196
0.04497283
-0.15074101
-0.15002766
0.070930757
0.29725248
0.1038458
0.12212841
0.083899565
0.32368141
0.30724746
0.26398975
-0.23144206
-0.36443263
0.058966879
0.26261675
0.098343454
-0.075471058
0.13555534
0.14317733
0.10430674
0.1184331
0.26782736
0.29877621
-0.011635832
-0.2283387
0.033273365
0.15082557
0.46875986
0.47953913
0.25217372
-0.33393669
-0.026960004
-0.089549057
-0.26852393
-0.1856786
-0.078852303
-0.30135971
0.10971828
-0.022365754
-0.068406194
-0.21058622
-0.17893228
-0.0011767569
-0.084103674
0.013916785
-0.15431558
-0.10956973
-0.11702936
-0.11684868
-0.057648752
0.079031199
-0.15268187
0.14442092
-0.047144853
-0.36135006
-0.033705465
0.027712658
-0.11619297
-0.077335611
-0.073496997
-0.022051021
-0.11852706
0.0010424227
0.21117325
-0.068678394
-0.080286197
-0.030757776
0.22673906
0.010900026
-0.083963215
-0.018306809
0.011723346
0.036791921
-0.015620818
-0.23358242
-0.6038304
0.14647326
-0.26332587
-0.38063103
0.22700104
-0.17733504
-0.094139382
-0.13532527
-0.043658856
-0.024077941
0.038651124
-0.006797743
-0.25316128
-0.13916342
-0.038870301
0.088974953
0.013243028
-0.033954382
0.069394752
0.090997741
0.031583756
-0.072317913
-0.043439303
-0.038466115
-0.090036236
0.20639685
0.03337561
-0.40574753
-0.30894232
0.0004166135
-0.1209712
-0.05831119
-0.18313856
0.11864176
0.072643191
0.007510562
0.063588388
-0.30087653
0.00041316915
0.088944457
0.060415097
-0.021741765
-0.17377374
0.026744999
0.061880209
-0.060388371
-0.043271784
-0.030593967
-0.094383493
-0.12735149
-0.040456235
0.081539921
0.00083809247
0.023259055
-0.067640007
0.069249414
0.080378532
-0.18553632
-0.15174115
0.043863699
-0.1176114
-0.082226083
0.056235366
-0.27536514
0.068333723
-0.1428677
-0.051818397
0.042775016
0.11065349
-0.043494843
0.046102654
-0.094395913
0.13999657
-0.11017847
-0.14478974
0.066624969
0.08814393
-0.014345309
-0.14693086
-0.15138669
0.057039153
-0.064853631
-0.18412904
-0.15176833
0.019374115
0.14006753
-0.26045433
-0.30583647
-0.31361699
-0.063760445
-0.045984749
-0.095971055
-0.53949451
0.074347988
0.14567257
0.025010403
-0.18798858
0.073557965
0.30510041
-0.20653361
-0.067881912
-0.93377411
-0.062843479
0.012064821
0.15860158
-0.15977526
0.10323272
-0.33290035
-0.33941597
-0.054455951
-0.088850282
0.11627135
-0.070615791
-0.48138061
-0.14502209
0.13797088
0.02900908
0.017570654
0.0062381336
-0.10328171
0.064622723
-0.13450997
-0.64800084
0.21025255
0.081326388
0.27926823
0.092046767
-0.1661206
0.083641782
0.18896732
0.13889992
0.098176286
0.35618758
-0.18755625
-0.25113118
-0.08020135
0.11223733
0.29151821
-0.21634158
0.20994262
0.32977071
0.0096661253
-0.17188159
-0.58715034
0.090201236
-0.32936257
-0.19103731
0.14579318
-0.41485202
-0.073999323
0.031005234
-0.1470882
-0.033712398
0.14130928
-0.089719266
-0.40062892
0.15149395
-0.032921892
0.2099967
-0.21330388
0.11095126
0.26605967
-0.33089539
0.11209592
-0.6730507
-0.0043332982
-0.55421931
-0.18016884
-0.11476751
0.099874727
-0.33566785
-0.55327475
-0.50517088
-0.18496346
0.11151118
-0.015144073
-0.74207079
0.29167679
-0.14855309
-0.020327259
0.36096504
0.058785841
0.015622605
-0.43660542
-0.14105161
-0.74972653
0.51364863
0.34428772
-0.55741942
-0.81484014
-0.04960027
-0.068629839
-0.024626793
-0.098911531
-0.17066438
0.37415665
0.1560517
0.016942389
0.21741916
0.010828946
0.32567519
-0.024430489
-0.092753641
0.28981528
0.10161489
-0.19150655
-0.3136436
0.81845808
0.077382676
-0.070854262
0.29716894
-0.55522728
0.33201131
0.97316927
0.10308649
0.066961035
-0.035752367
0.12616856
0.36353838
0.10500125
0.098629065
0.032114968
0.19110096
-0.0041726637
0.34340584
0.16277598
-0.0050003584
-0.056020584
0.45068204
-0.061236758
-0.15755676
0.08410345
0.036232922
0.092740469
0.32191414
-0.69180077
0.49844077
0.2358707
0.18928848
-0.14992689
0.11512426
0.019259075
-0.92592108
-0.51248914
0.067911185
0.048508625
0.29864562
0.032874916
-0.32161677
0.064793728
-0.57856566
-0.27179673
-0.83720863
0.32723022
-0.77729708
-0.8660242
-0.28937179
-0.40564573
0.098880544
0.44806021
-0.71829319
0.45893124
0.41786739
-0.82145333
-0.48312137
-0.055123582
0.031162085
-0.23596095
-0.5457992
-0.18653439
0.28036204
0.31479242
-0.22148854
-0.45257083
-0.07580284
-0.03517434
-0.082951069
0.11267926
-0.40386787
0.20873718
0.26571405
0.20806627
0.31207687
0.26926175
0.10386646
-0.263547
0.060291328
0.10928606
-0.072699204
-0.026042873
-0.1457724
0.040806439
0.22766639
0.2479205
0.29963166
-0.27445307
-0.092749164
0.29419845
0.4595218
0.36879489
-0.20976239
-0.11683333
0.30724183
0.20017011
0.11096785
0.44236946
0.030726869
0.27776462
0.081505634
0.10874654
-0.19131735
0.15409647
-0.018227292
-0.28451926
0.022884259
-0.11000068
0.23735951
0.021297187
-0.0027077326
0.33069524
0.33974993
0.32110175
0.050896402
0.057750627
-0.04078668
0.15584266
-0.0063820779
-0.20785043
-0.0013277304
-0.059497301
0.30032516
-0.24782556
-0.004667175
-0.12797017
-0.21191832
-0.18070383
-0.10714509
0.34024081
-0.24778773
-0.40663403
0.20660244
-0.078446098
0.21774355
0.30704519
-0.20563197
0.040834539
0.24470291
0.051983476
-0.39261448
0.18645118
-0.073583432
-0.055711914
-0.14940658
-0.25984883
-0.22400627
0.40404245
-0.049687147
-0.021543751
0.17138207
-0.071449481
-0.16181983
0.012764203
-0.24237275
-0.2074424
-0.034714192
-0.17962128
0.025745662
0.099640943
0.21483752
-0.0073986584
-0.16154359
0.032969579
0.038665038
0.040733375
-0.20708393
-0.11177396
-0.076897375
0.081808947
-0.14738539
0.25889379
0.10563164
0.024318052
-0.018871767
0.059989717
-0.010976024
-0.49831748
0.073454313
0.17819029
0.065825641
0.096303903
-0.24919835
0.070350431
0.0025326828
0.26909715
-0.12878643
-0.26328668
-0.2396117
-0.089761928
-0.28910843
0.18617223
0.035855144
-0.28617457
0.11921599
0.29195634
0.16291852
-0.071342252
-0.15387805
-0.080606423
-0.17838542
0.12243406
-0.0016077179
-0.037245113
0.05418396
0.0086909197
-0.15499054
0.073220454
0.14720909
-0.49418226
-0.23532346
-0.29065907
0.14279577
0.11554865
-0.64748561
0.0092799431
0.32710683
0.22795247
0.0041064951
-0.27325618
-0.019513082
-0.0086952057
0.053709403
0.1456742
-0.51671231
-0.29095542
0.0036078356
-0.049976263
0.065925233
0.055982906
-0.27703065
-0.18105505
0.072073899
-0.32424173
0.089581355
0.034957156
-0.11456063
0.26377195
0.13473184
-0.24276225
-0.29232123
0.29518768
-0.096771859
-0.10207271
0.19775739
0.043562274
0.053346641
-0.0024834187
-0.15486187
0.030513374
0.099549346
-0.28386211
0.024799448
0.15610348
0.043693483
-0.059228856
-0.058642983
-0.071908414
0.50861269
0.51868331
-0.14206956
-0.41255102
-0.21615328
-0.19438559
-0.21799557
0.39155281
0.21699497
0.39971536
-0.29352501
0.11710411
0.14420317
-0.0192989
-0.12420835
-0.1335858
0.029742738
0.21818574
0.03627583
-0.087042861
-0.31994423
0.40390679
0.15638064
0.053069752
-0.13740481
-0.16385972
-0.28932518
0.1472313
0.33834091
0.162856
0.17819521
0.059077617
0.15626949
0.26712248
0.089121498
-0.81493968
0.022561846
-0.23331618
0.16120912
0.024214638
-0.3156395
-0.18997878
0.078942694
0.096431553
0.060476538
-0.196114
-0.49831799
-0.21237846
0.21983664
0.31384566
-0.052414745
0.13496248
0.276429
-0.10242408
0.21722542
0.21630839
-1.1603686
-0.25664809
0.083631136
0.31564081
0.14520437
-0.56200469
-0.23050739
0.5160442
-0.30344105
-0.70951289
-0.26916996
-0.55353713
-0.42370516
-0.29966483
0.272475
-0.27809128
-0.40232041
-0.1916742
-0.45543396
-0.59090692
0.77244979
-0.29150045
-0.17758292
0.36082914
0.48250929
-0.31379223
-0.47130421
0.22539604
0.46427035
-0.26744145
-0.23328397
-0.15849274
-0.13683279
-0.18788499
-0.27171913
0.51935494
0.42048454
0.076641642
0.33198985
-0.31900871
-0.23919009
0.55956173
-0.39657304
0.22047675
0.37188324
0.35055357
-0.34913039
0.053006288
0.28227127
0.70561969
0.059501156
-0.17831236
0.037038725
0.13475616
-0.13641064
0.12759285
-0.29162839
0.23299444
0.4344039
0.3551155
0.14094798
0.14409508
0.59147865
-0.20248529
-0.17966498
-0.018327294
0.21483737
0.14301822
-0.048794229
0.0418006
0.19800258
-0.081350781
-0.44269234
0.045154601
0.0140387
0.085317545
-0.098858953
0.049179483
-0.089641996
-0.27714214
0.16346203
-0.15171096
0.34439504
0.13717481
-0.1029641
-0.15019861
-0.12982655
0.099487364
-0.14354214
-0.19294512
0.03495669
0.1192826
0.25477624
-0.33387789
-0.22295046
-0.09364859
-0.18667382
-0.13843295
0.52075148
0.090728454
0.24540703
0.086519971
-0.20896447
0.090700157
0.012130253
-0.11589159
-0.15421905
-0.42296541
0.29744837
-0.1223054
-0.120101
0.14625712
-0.38842785
0.23302671
-0.26504186
-0.40029716
-0.16815211
-0.20728154
-0.086514376
0.64491099
-0.12148544
0.25269946
0.15034424
0.024266869
0.11569282
-0.12970535
-0.23126046
-0.30710196
0.051883291
0.15163282
0.07099957
0.066922314
0.16124344
-0.086932994
0.22567736
-0.12920457
-0.19734381
-0.013386059
-0.37014908
-0.026533892
0.1234825
0.21215515
0.252101
0.25432903
0.017739953
-0.22942616
-0.18279964
-0.043672264
-0.21208329
-0.1411182
0.049346879
-0.39128914
-0.036014579
0.14194414
-0.091119513
-0.081692204
-0.018778674
-0.10317687
0.045940366
-0.11626679
0.067951143
0.21511857
0.045567803
0.011095541
0.13002753
-0.090372145
0.059108157
-0.23621261
-0.17845809
0.17000875
-0.19948386
0.16437523
-0.20374888
-0.070183657
0.17127047
-0.034043878
0.10047305
0.22063009
0.12214804
0.011624657
0.040982172
0.05982998
0.064475864
-0.076910436
0.1250789
0.42380023
-0.083895974
0.064772345
-0.33288547
0.10978708
0.14584379
0.036205299
0.050936885
-0.099950336
-0.084687971
-0.018544022
0.16421282
0.027808944
-0.33549747
-0.14031263
0.097798005
0.20270494
-0.07869342
-0.1166168
-0.13685033
-0.21231605
-0.12869418
-0.0068503669
0.15711008
-0.32713813
-0.11701544
-0.11306366
-0.43406999
0.2124595
-0.08591114
-0.11040876
-0.097558491
-0.03063209
-0.083158165
-0.19678514
-0.023911126
0.15634662
0.0062716319
0.002410701
-0.16049537
0.17376405
-0.081970997
0.06187582
-0.068769827
-0.099212945
-0.21186979
-0.13252245
-0.020827012
-0.13187148
-0.16403854
0.068924867
-0.070378855
-0.090473905
0.01364674
-0.022368733
-0.069450229
-0.29461265
0.074020393
0.16143078
-0.2750994
-0.004500628
-0.12622137
-0.12010047
-0.083707303
0.097721547
-0.11525708
-0.34137732
-0.12036417
0.056922443
0.2076041
0.032221589
0.37394187
-0.16577569
0.31360704
0.084203139
0.13869341
-0.089882776
-0.17095289
0.018425081
0.24792345
-0.080416411
0.085012808
-0.077672258
-0.039916843
0.14927481
-0.16429122
-0.29297689
-0.38039196
0.0018248296
-0.25407591
-0.079190597
0.11742633
-0.19944495
-0.17953408
-0.35497996
-0.3218002
-0.1447566
-0.3804616
-0.019031957
-0.23013346
0.16523981
-0.24204502
-0.29566079
0.018900907
-0.046219662
-0.16434208
-0.095862046
-0.15515438
-0.78440195
-0.47883883
-0.43327451
0.025563786
0.15620413
-0.14149699
-0.39941633
-0.87330556
-0.5214833
-0.21382251
0.0064960723
-0.21210194
-0.48172882
0.081246942
-0.29531258
-0.19840471
0.18207666
0.12721035
-0.1696403
-0.067041017
-0.22234221
-0.72742063
-0.2576071
0.13735428
0.17967491
0.19397725
-0.076858439
0.12621671
0.25289652
0.073858492
0.11198045
0.0030058289
-0.089196511
-0.22446752
0.20598672
0.044234205
0.29351324
0.14902075
0.082826979
0.057330236
0.11813741
-0.15834358
-0.71544898
0.75025028
0.02034105
-0.13934731
0.5421496
-0.25674918
0.37024182
0.34961647
0.2509377
-0.02428907
-0.061540738
-0.30131939
0.33702731
-0.15994957
-0.12942171
0.68110567
-0.15401681
0.050002009
0.44988701
-0.097288057
0.36217725
-0.54963356
0.99182159
-0.59409201
-1.0076103
-0.60236096
-0.1112473
0.46995574
0.14077668
-0.50894392
-0.11945999
-0.022279629
-0.30577841
-0.39725429
0.17681582
-0.19719861
-0.56061763
-0.83215076
-0.033668082
0.10047563
-0.020209284
0.02229589
-0.68069696
0.63610208
0.086085476
-0.80929554
-0.96243608
0.10805004
0.2234199
-0.34186909
-0.9058103
-0.15888152
0.12796505
-0.30475175
-0.31988543
0.29188842
-0.16042417
-1.3193996
-0.23014775
-0.3682538
0.080228724
-0.24611573
0.15659149
-0.40671891
0.71774518
0.99785966
0.8608551
0.12997338
0.2248459
0.57655406
0.68763566
-0.49790654
0.0049421396
0.096628375
0.095461652
0.36813852
0.29577619
-0.28637066
-1.2186251
-0.094694577
-0.03880354
0.36834586
0.098489352
0.049399585
-0.14975984
1.1551563
0.37259966
0.49648482
-0.37308457
-0.079929151
0.42237222
0.075914219
-0.52014995
0.026040427
0.19248329
0.14206222
0.48683119
0.37488359
-0.28589872
-0.74826419
-0.15141653
-0.069332004
0.19551699
0.16051741
-0.85197496
0.071229823
0.71615684
-0.47967598
-0.35632166
-0.8465094
0.17699715
-0.21330976
-0.26434758
-0.38070619
-0.018389435
0.12137549
0.586402
-0.28928027
0.45306426
-0.055549867
-0.90747803
-0.1853722
-0.29639852
0.041228693
-0.054825757
-0.80142713
-0.36183822
0.21034876
0.061336473
-0.041999791
-0.27399495
0.2039696
0.085553482
0.0067938701
-0.048259784
0.071412146
-0.098091841
0.45803186
0.12463835
0.41804305
-0.11953983
-0.55184221
-0.31080091
-0.4070414
-0.13006654
-0.10359711
-0.26714641
-0.45890561
0.34562185
0.32975867
0.17561854
0.1268765
-0.13706653
0.14063695
0.31731522
0.1406683
0.056094881
-0.21656534
0.037816051
0.40835562
0.33631682
-0.2810505
-0.53240758
-0.032529771
0.19222842
0.19993931
0.12709811
-0.22765151
-0.29561448
0.075067125
-0.29137048
-0.12657654
0.097288109
-0.026601413
-0.19122173
-0.07186649
-0.3652193
-0.17608041
-0.080947354
0.17405571
-0.50551975
0.0046999748
0.020859601
-0.37576243
-0.039929867
0.17375408
-0.036714125
-0.0065444158
-0.1421787
-0.49219635
0.2973375
0.19885673
-0.30299681
-0.15762959
-0.076731063
0.38298672
0.073824413
-0.29277861
-0.17125185
0.13989848
0.20777546
-0.19791903
0.23503658
-0.013166958
0.0047378684
-0.16897926
-0.28257221
0.1260657
0.080884956
-0.26403558
-0.32909837
0.32546574
0.17891005
-0.038533248
0.22493459
-0.20587325
0.50592488
0.26031232
-0.2555337
-0.25545809
-0.019609697
0.034308933
-0.056425758
0.038015973
-0.10410348
-0.24834961
0.10514169
0.17386262
0.052597951
0.02779275
-0.55648643
-0.25189248
0.24832746
-0.20565864
-0.18402617
0.21913469
0.015660556
0.12309214
0.094868876
-0.53514892
-0.011436982
0.084543504
0.075291738
-0.13585494
-0.0075882184
0.024828363
-0.28712144
-0.41413361
0.010368977
0.10944635
0.11317515
-0.27037343
-0.38805962
0.046356905
-0.10220861
-0.57193303
-1.0752225
-0.0081614712
-0.030860811
-0.53215533
-0.71010661
-0.21284173
0.41366351
0.46176273
-0.0063329441
0.21374555
0.066685721
-0.52157265
-0.38115954
-0.18198182
0.088565454
0.046309788
-0.02707047
-0.29020232
0.18022445
0.34587815
0.2109583
-0.12014389
0.27160594
0.20357253
0.14486332
-0.28102669
0.0079118144
-0.018141279
0.18038644
0.018544303
0.18477365
-0.205854
-0.71552545
0.033364818
-0.30320036
-0.12036228
0.17484209
-0.15360746
0.038178626
0.17694306
0.40435004
0.006056862
0.12612778
-0.057255544
0.1968767
-0.28751919
-0.25443071
-0.021072604
0.21728392
-0.26615483
0.43072864
0.076422773
-0.16245809
-0.2822569
-0.33295333
0.35057482
0.39192402
0.43164119
-0.019605782
-0.072801501
0.30455077
-0.34275502
-0.24969757
-0.56423396
-0.012074574
-0.25442982
-0.39558932
-0.3847425
-0.052048162
0.47136748
0.61717975
-0.13080205
0.40663996
0.31940079
-0.63197279
0.056427527
0.10104833
0.034777328
0.066424631
-0.18670085
-0.2998932
-0.048172016
-0.042237468
-0.069287546
-0.61536199
0.46853772
0.071240015
-0.39714059
-0.68536955
0.23577628
-0.0097822957
0.82074195
-0.17551431
0.20422933
0.23127216
-0.74854946
-0.16234592
0.068878606
-0.19888654
-0.14169887
-0.24171902
-0.044614036
-0.15355968
0.039729781
0.30664557
-0.1468346
-0.27858347
0.17412807
-0.006265372
0.42255762
0.077121176
-0.31631017
-0.44203815
0.24201538
-0.16819841
-0.42067447
-0.26614153
0.048392769
0.07994315
0.16008326
-0.030595539
-0.40489
-0.0016587588
-0.075985171
-0.17588213
0.00047550656
0.081330061
-0.022645108
0.21245115
0.23908107
0.010685018
0.099641971
0.12929156
-0.27244046
-0.023195915
0.051843904
-0.048994679
-0.34639946
0.048547115
-0.12986928
-0.11986679
0.089165762
-0.2336517
0.00012235022
-0.16684063
0.052202836
0.37178898
-0.010160401
0.22735186
0.088613711
-0.18251917
-0.22503744
-0.055065718
0.25782859
0.097657554
-0.041622967
0.00063308497
-0.14912856
-0.02943561
-0.16314276
0.0042605787
-0.09286128
-0.060375277
-0.21105671
-0.19893181
-0.12382706
0.023917237
0.26759419
0.071432576
0.059307314
0.20577896
-0.12429773
-0.0079086134
-0.14033188
-0.20891085
-0.05799219
-0.075473249
-0.079950735
-0.013254405
0.12853006
-0.074728496
-0.082095928
0.069912985
0.087187544
-0.14673847
-0.18084526
-0.19279715
-0.039325651
0.017184647
0.077281915
-0.38095275
0.051742591
-0.035335667
-0.17447667
-0.14277253
-0.21376537
-0.2901209
-0.03995119
0.0053121378
-0.017746272
0.23883101
-0.088594317
-0.015142246
-0.039646551
-0.19046418
-0.23936112
-0.096971929
-0.28787652
-0.099940799
-0.13320188
0.087482132
-0.075220995
0.030409884
-0.13022329
-0.27543727
-0.15247509
-0.0058729113
-0.19208643
0.23204167
-0.16216172
0.045999262
0.16478798
-0.27307692
-0.031285383
-0.34337756
0.012649572
-0.0055950773
-0.098992303
-0.13239978
-0.022375418
-0.070910074
0.15247223
-0.17451186
0.042708058
0.075909048
0.15386888
-0.080944784
-0.11116719
-0.042582069
-0.14022535
-0.14413041
-0.10754169
-0.022304364
-0.040170915
-0.11658038
-0.032737732
-0.041494884
-0.1885795
-0.031615749
-0.071486592
-0.073588692
-0.19125526
-0.029926019
-0.019769931
-0.11726565
-0.014108595
0.083923712
-0.1410403
-0.073426202
-0.00096460857
-0.13657884
-0.043567367
-0.059735049
-0.23476031
-0.069610886
-0.016035272
0.089797378
0.085705325
0.028408341
-0.00026296286
-0.15929632
0.061479915
-0.16576354
-0.10575497
-0.080841087
0.011860162
-0.091185607
-0.11114171
0.052277688
-0.17573768
0.088820443
-0.07312075
0.14938903
0.051796313
-0.12660545
-0.24101229
-0.20632942
0.17626339
0.047881629
0.011394058
-0.028932836
-0.34133679
0.06023955
-0.25293231
-0.29004553
0.12833291
0.10719914
-0.11105023
-0.23508742
0.047381248
-0.019148091
0.16370328
0.0097566051
-0.048388559
0.21608916
-0.055248607
-0.045922793
-0.03301302
0.18870196
0.26291126
0.059039708
-0.00073836761
-0.2924642
-0.080491379
-0.10597324
-0.11863057
-0.11963212
-0.14871141
-0.086833708
-0.24022071
-0.012299689
0.2415261
0.06229905
-0.056403071
-0.023612378
0.024673941
-0.19446597
-0.11325876
-0.22419851
0.081434898
0.1234907
0.31357104
-0.0016691554
0.077067241
-0.013888207
0.19005114
0.18030094
-0.035538059
0.023531388
-0.0019527485
0.33615568
0.030495729
-0.20233211
-0.14719182
0.13007867
-0.12898356
-0.16544937
-0.12453654
-0.12039945
-0.18004696
-0.024650317
-0.09447252
-0.10550576
-0.046357043
-0.05264461
-0.036861893
-0.021138467
0.09177231
0.17087822
-0.073782332
-0.071217716
0.26846549
0.070715338
-0.32818702
-0.34517425
0.0029703442
-0.29861778
0.018771946
-0.088725522
0.014022752
-0.17462803
0.017036246
-0.013726898
-0.38790083
-0.28179163
-0.37022075
0.070758149
-0.24765325
-0.10478726
-0.0068480126
0.10622519
0.19735095
-0.16911523
0.042271275
-0.038360279
-0.26670489
0.14602265
-0.17715041
0.073754288
-0.36149096
-0.30982631
-0.21529159
0.089258619
-0.023999384
0.053602941
-0.20933616
-0.19573545
-0.044045944
-0.090379663
-0.067749955
-0.01006717
0.034639373
0.10798018
-0.31214616
0.14862902
-0.28579739
-0.29033139
-0.13094871
-0.23257019
-0.020187106
-0.011382342
-0.18630834
-0.12311103
0.037227064
0.035613064
-0.19995171
-0.23034807
0.0062559196
0.018691137
-0.14086542
-0.046357222
0.075103588
0.12700868
0.12363598
-0.22063103
0.022478195
0.03668122
0.009759062
0.087379441
0.1553183
0.074818157
-0.11312488
-0.18607667
-0.16265592
0.00052912242
0.16803391
0.0025445172
-0.055370077
-0.050449084
0.00036868433
0.0058128871
0.13335715
0.027390176
-0.040779885
0.16383933
0.077431217
0.034514882
-0.07152316
-0.10617018
-0.054511547
-0.051941939
-0.15912133
-0.016671494
0.098071598
-0.18095393
-0.01979498
-0.06122933
-0.085446887
-0.033794302
-0.034103241
0.016052587
0.2338389
0.085093558
-0.10524704
-0.044189941
0.080621071
0.20706892
0.25318256
-0.014791196
-0.063516855
0.099256776
0.12000591
-0.06387955
-0.10981174
0.19588616
-0.054942075
-0.026886605
0.12221941
0.0017976862
-0.063279271
-0.093738943
0.059487209
0.021636495
0.027694814
-0.077267721
0.084253602
0.041349329
0.12830818
0.18011373
-0.093067802
0.025901752
0.10826872
-0.019383034
-0.063765652
-0.0061279731
0.0027683342
-0.049493488
0.19393668
0.12263891
0.032302193
-0.094113275
-0.06176126
-0.029894238
0.052775573
0.011810204
-0.0082407659
-0.025998455
-0.13090177
-0.043583408
0.09054964
0.053325277
0.009263996
-0.055134367
0.029419482
0.15029356
-0.20106752
0.063992202
0.0081593608
0.18842414
0.22597577
0.1747905
-0.091617018
-0.19704226
0.0079772994
-0.18050019
-0.15906322
-0.08548934
-0.018203182
-0.05391103
-0.11831981
0.041706637
-0.051700599
-0.092373326
-0.20224814
-0.042014614
0.24142735
0.056296282
0.075047009
0.12560154
0.27957606
0.14789835
0.033437565
-0.10415424
-0.053838532
-0.016676476
-0.018822148
-0.019709315
-0.018808758
-0.045347035
-0.05360385
0.013638909
-0.030544359
-0.042422377
-0.013963432
-0.073621809
-0.020799069
-0.012365554
-0.00089120015
-0.04802743
-0.016148034
0.00033777053
-0.023165207
-0.020846991
-0.012839601
-0.075309724
-0.031256776
-0.026194273
-0.06208986
-0.036322661
-0.026690349
-0.043256186
-0.017322727
-0.0005024203
-0.0084439507
-0.048943758
-0.013451942
-0.023065513
-0.002865463
-0.029911244
-0.032610554
0.0097414535
0.029265584
0.024856439
-0.040778678
-0.027203228
-0.07625889
-0.059759408
-0.038815733
-0.053470258
0.020333014
-0.054461725
-0.045853145
-0.066869386
-0.00087790668
0.0035811258
-0.010052044
-0.096582077
0.0016832508
0.011463966
-0.01553283
-0.01669175
-0.033198033
-0.03307816
0.003660511
0.021150682
-0.038437266
-0.028606081
-0.052281111
-0.054648466
-0.018356474
0.0083262175
-0.038636915
-0.015430015
-0.05511307
-0.029320141
-0.033026673
-0.042711023
0.0070208865
-0.046618652
-0.029692566
0.035505652
-0.010449185
0.010331052
-0.023181664
-0.0070145824
0.01013977
-0.0054101837
-0.02841353
-0.044363048
0.0016106667
-0.019918431
-0.04329728
-0.03123261
-0.041845519
-0.0082086269
-0.009108034
-0.011909083
-0.06804277
-0.041285787
-0.012490693
-0.048836004
-0.055367105
0.030754654
0.021677215
0.01754522
-0.032645583
-0.020395264
-0.043830767
-0.081627361
-0.044766158
0.018379854
0.037253007
0.0009506041
0.00039453173
-0.035606787
0.004200012
-0.010427438
-0.049856454
-0.1070166
-0.054466654
0.0090613756
-0.059715547
-0.018103383
0.010245062
0.011076993
-0.0076009929
-0.055624053
0.0056146835
-0.097264983
-0.062337812
0.030141637
-0.051784374
-0.004607691
-0.0054054237
-0.04677061
-0.0051723737
-0.070687704
-0.0060074157
-0.053804308
-0.066252261
-0.01808496
0.030997094
-0.027965166
-0.026390797
-0.031445742
-0.010570457
-0.016127387
0.026778756
0.0035615154
-0.049535245
-0.073865637
0.012025559
-0.074915975
-0.059586465
-0.0324203
0.0087553067
0.032291275
-0.055351943
0.012459982
-0.0085828425
-0.092615582
-0.011552054
-0.036151342
0.013132732
-0.078542471
-0.090527743
-0.034143768
-0.017781859
0.00090937939
-0.011756118
0.0081520379
-0.10709795
-0.017360225
-0.038989462
-0.015791308
-0.0072742808
0.0016568271
-0.0037227753
-0.032541793
-0.0083471499
-0.0062151556
-0.056979299
-0.025188377
-0.017466813
-0.013331004
-0.068175688
-0.028939389
-0.023936927
0.014574185
-0.029890064
-0.023483081
-0.014705935
-0.049602538
0.018754957
-0.035287928
-0.069582947
-0.0081375437
0.0080782427
-0.038093913
-0.037490543
0.0084453011
-0.022737026
-0.10988779
0.022282526
-0.042751402
-0.0086544873
-0.031481713
-0.044070322
-0.035275716
0.017638583
0.016685978
-0.050740354
-0.0443081
-0.0365512
-0.011431046
-0.032116979
-0.053502101
0.018974682
-0.041108564
-0.0094886301
-0.039618004
-0.020960735
-0.0033446704
-0.067547671
-0.036849856
0.0016950872
-0.021198783
-0.032123871
-0.053626999
-0.050564293
0.052875623
-0.0031908804
-0.0083380239
-0.049405962
-0.080572873
0.013096775
-0.030706443
-0.039101925
0.0057313088
-0.0064793038
-0.098491974
-0.030916626
0.0082770716
-0.001316117
-0.050066236
-0.04319175
-0.010539005
-0.00543886
-0.073537864
-0.050972596
-0.060699575
0.014489664
0.010022103
-0.041548349
-0.048684355
-0.044073828
-0.013089413
-0.060133129
-0.079322569
0.017413266
-0.012321349
-0.075193562
-0.07893388
0.010378047
-0.0046852115
-0.02039044
-0.059034411
0.032606933
0.034009926
-0.029651299
-0.059584845
-0.025350329
-0.014020066
-0.004490565
0.019542016
-0.067435965
-0.049330018
0.027813077
-0.040677253
-0.066286109
0.0025600803
-0.0075075254
-0.071731336
-0.023315648
-0.0027296741
0.020255653
0.017931825
-0.016121073
0.013325834
-0.020448411
-0.060081534
-0.082486898
-0.048460722
-0.0083992528
0.0012224595
0.021270251
-0.069691129
-0.059212349
-0.018172143
-0.053334791
-0.042886451
0.022324406
0.036055386
-0.023917112
-0.06103386
0.0054979259
-0.009879333
-0.068198957
-0.032306317
-0.0033904968
0.0053077275
-0.018739959
-0.031225879
-0.001145585
0.03744046
0.0096235927
0.0082077291
-0.06369707
0.001377292
-0.17651758
0.13338284
0.053270198
0.2161791
-0.13358641
-0.00096834166
0.10351722
-0.10904343
0.094760038
-0.032315213
-0.015103263
-0.25440884
0.078669086
-0.049405165
0.041623581
-0.14371461
-0.10444511
0.0049065165
-0.05149686
-0.30068019
-0.039216805
-0.011074709
-0.054715447
0.0052718483
-0.17014496
0.051651258
-0.1236184
-0.16065797
0.13293581
-0.012618655
-0.18243456
-0.068389609
-0.10047848
0.20972177
-0.24186386
0.05884384
0.017783841
-0.086652674
-0.18349227
-0.15062778
-0.38575318
1.2810704e-05
-0.016047912
-0.19291547
-0.059891049
-0.039290093
-0.23021919
-0.17959036
0.10364785
0.15864894
0.015899578
-0.24030784
-0.25840765
0.11325223
0.16338155
0.0098410761
-0.041581154
-0.12677319
0.12820117
0.12714922
0.06700334
-0.19888404
-0.43137309
-0.19982865
-0.11630876
-0.1157046
0.075757414
-0.098286979
-0.23843233
-0.15111597
0.084495723
0.0097322082
-0.17901048
-0.3227275
0.19091333
-0.0067981565
0.36947861
-0.21117434
0.0092231827
0.0075732828
-0.016847238
-0.0096912142
-0.12101436
-0.52831966
-0.089227028
-0.2375368
-0.33812088
0.21898147
0.071529232
0.063393772
-0.48269331
-0.17429344
0.18185508
-0.18895246
-0.17602412
0.022810105
-0.27317077
0.16526736
-0.29399937
-0.20104118
0.10504428
0.03296243
0.054505154
0.044004355
0.086020008
0.21788351
-0.1836891
-0.1957671
0.1843053
0.17162134
-0.1427196
0.076533742
0.11965673
-0.0035118866
-0.30478975
0.064443521
0.011801118
-0.18714128
-0.031377204
-0.030888319
-0.087882891
0.045928072
-0.02319097
0.090260051
0.25784883
-0.034919336
-0.033755235
0.052230369
0.17359225
0.32026076
-0.047789853
-0.27445197
-0.4748973
-0.11464312
-0.20985246
0.10257338
-0.22729801
0.15261529
-0.007974836
0.21426514
-0.032678761
0.52711785
0.042629991
-0.11486857
-0.28226316
0.88201469
-1.1054909
-0.17546752
0.90179121
0.51921278
-0.071675465
-0.23271228
-0.5465163
1.966616
0.099494897
-0.26952866
-0.5699656
-0.10466859
-0.20322822
-0.41086668
-0.28692117
-0.37669525
-0.14055681
0.01574089
-0.4987843
-0.62659639
1.1449642
0.30783775
0.33183026
0.12264215
0.19223876
0.25637302
0.6168862
0.002861616
-0.33343229
0.29698423
-0.0059175347
0.24256817
0.25238818
0.48508969
0.087953173
0.077740014
0.51082939
0.3961333
0.17053896
-0.20455244
0.045886673
0.51889491
-0.23267369
0.056438632
0.17706741
0.28874269
-0.44335642
-0.25024131
0.12818857
-0.35814574
0.22238062
-0.24246238
-0.19449835
0.33286709
0.30873656
-0.18087374
1.6921045
0.0090683224
0.3285211
0.087048322
-0.23372419
-0.16934711
0.1924137
0.048869796
-0.15381454
-0.031678639
0.3657994
-0.088186502
0.18586911
0.36955124
0.091331907
0.20850945
-0.22299214
0.048924826
-0.42888427
0.073849566
0.088317037
-0.21978407
-0.20825292
-0.31457129
-0.050795995
0.14905271
0.10958786
0.017267438
-0.25052923
-0.1170023
-0.04033104
-0.069285236
0.33461815
0.38415641
0.39569592
-0.57786685
0.016796982
0.0059186551
-0.031110283
-0.494683
0.22267199
-0.09450613
0.1312325
0.0064383121
0.38948455
-0.041523211
0.10349999
-0.4108586
-0.12629914
-0.063120238
0.078770518
-0.3294706
-0.26643848
0.036464341
0.20705549
0.029863577
-0.47012201
-0.0058368556
0.038888212
-0.033362888
-0.27677855
0.11843085
-0.17532161
-0.17166525
-0.17602167
-0.19955926
-0.28673208
-0.26076901
0.1303595
-0.44359258
0.094293021
0.081376836
-0.091180161
0.23392403
0.0087170731
0.060069326
0.17284626
-0.10985115
-0.013859118
0.21185285
-0.082076721
0.33661079
0.19956699
0.12630321
-0.016919121
-0.11746608
0.26641795
-0.13052803
0.2632007
-0.16838698
-0.31586254
0.31286293
-0.058345638
-0.29759368
-0.051391385
0.17773695
0.18322729
-0.0060991715
-0.21695265
-0.31270537
0.15830177
-0.14416368
-0.1197082
-0.36828661
-0.046613064
-0.13107195
-0.2726225
-0.15650755
-0.18807463
0.050890706
-0.13618499
-0.42254218
-0.17189324
0.059409935
0.047625024
0.09260349
0.075738296
-0.06235344
0.041381378
0.24618839
0.080149673
0.047946598
-0.11805079
0.1167904
-0.13610996
0.0077332435
0.24165042
-0.0086291665
0.050643779
-0.20443964
-0.15712315
0.17999904
0.038602147
-0.12639573
-0.029945159
-0.004344495
0.054575786
0.027180748
-0.15649307
-0.0081778113
0.063442074
0.0074751107
0.11606782
-0.18610677
0.033794459
-0.086100183
0.064284004
0.19441973
0.066129141
0.12140401
-0.071358927
-0.14588664
0.22129548
-0.00017782174
-0.35130531
-0.16251087
-0.024089005
0.12925395
0.084742464
-0.16465969
-0.17697285
-0.044444084
0.021820417
0.22523651
-0.094308436
-0.043383233
-0.058119021
-0.035295811
0.07511647
-0.12902655
0.07309036
-0.050570469
-0.054535892
0.29533139
-0.00031020594
-0.32743257
-0.091198795
-0.15910083
0.043906551
0.015129786
-0.097597942
0.11084774
-0.063156329
0.092093661
0.1530425
-0.12711856
-0.043169472
-0.10956524
0.021050928
-0.019210249
-0.13697861
0.071582913
0.00043774102
0.043882918
0.34928715
0.053075064
-0.20675312
-0.14150029
-0.22221237
-0.078541167
0.16814058
-0.10449236
0.031791557
-0.24734108
-0.022880452
0.2522431
-0.096822686
-0.14448017
-0.21204096
0.045655455
-0.12947243
-0.19970571
0.14287592
-0.038343482
0.080926307
0.52534044
0.10346228
-0.44408733
-0.092609763
-0.32510892
-0.17852417
0.15896952
-0.039043307
-0.11792594
-0.31919381
-0.11487225
0.046510305
-0.16773449
-0.21017292
-0.13561738
0.036184099
0.10893756
-0.2664277
0.12846285
-0.087137766
0.061748423
0.37791514
0.19048631
-0.37683177
-0.27418345
-0.119944
0.070603013
0.07558316
-0.072808959
-0.29751387
-0.15626298
-0.21870121
-0.13846621
-0.29172322
-0.40006408
-0.13113189
-0.21330015
0.38373634
-0.34502116
0.0016246577
-0.14582953
-0.28259736
0.075631008
0.54532653
-0.15393479
-0.039196394
-0.096202493
0.10220341
0.10308446
-0.099977307
0.02327548
0.10917993
-0.067729197
-0.15240976
-0.27154481
-0.16470388
-0.10779059
-0.22921412
0.38902834
0.038404923
0.30471867
-0.044902686
-0.073077321
0.020009207
0.41550019
-0.21861672
0.0067268177
0.03749885
0.19422953
-0.12447906
-0.025330327
-0.049663741
0.14926313
-0.057921339
-0.25982118
-0.35426065
-0.1438822
-0.16969995
-0.0025897513
0.42283192
0.080384858
0.040289853
-0.021092264
-0.12705463
-0.012523633
0.45813501
-0.28533158
0.0607346
0.037327416
-0.03792439
-0.10412081
-0.069446981
-0.034117129
0.27058238
-0.0087462915
-0.40295115
-0.39402056
-0.01316205
-0.041674405
-0.27875105
0.35125923
0.10620888
0.17772186
-0.060623422
-0.22504711
-0.22858644
0.25396279
-0.068454176
-0.083709873
-0.080336474
-0.0061198999
-0.10824858
0.028557891
-0.0095403064
0.029905081
-0.10475267
-0.2063214
-0.22566633
-0.11943919
0.0090372004
-0.038101666
0.20825477
-0.019880665
0.085512035
-0.074857622
-0.17030038
-0.10332468
0.078834563
-0.085538335
0.13862215
-0.071871348
-0.19540419
-0.097117595
0.22784266
-0.01943275
-0.053408366
0.12432335
-0.14568631
-0.12350193
-0.0018518034
0.036407001
-0.066940799
-0.18783002
0.10510635
0.33730209
-0.16759942
0.018648304
-0.086276069
-0.024961488
-0.061968438
0.12658167
-0.22794074
-0.15381595
-0.028424898
0.065802723
-0.0030900815
-0.11346496
-0.069355719
0.075696349
-0.13344523
-0.079847686
-0.03044921
-0.036981449
-0.17341195
-0.084618442
0.059785344
-0.11487895
0.0068616173
0.057564154
-0.0076090433
-0.10204476
0.22793174
-0.033029474
-0.083493128
0.045337159
0.18508007
0.11562971
-0.095983587
0.06024133
0.067398548
-0.036554962
0.0058147013
0.16799246
-0.1172925
-0.077678107
-0.063265599
0.1720189
-0.022612454
0.074756712
-0.047484163
-0.017476456
-0.0034717403
0.024768492
0.043100137
-0.041392658
-0.069513023
0.052783072
0.10198903
0.067245424
0.13761345
-0.03997048
0.023891106
0.05876131
0.086594075
0.035532001
-0.045217872
0.098902479
0.23820651
0.093965016
0.021831108
-0.072391756
0.095898621
0.0066276244
-0.0070438506
0.035324074
0.034247264
-0.028749296
0.017130865
0.054925684
0.059043232
-0.015039818
-0.054993119
-0.0059785154
0.052950624
-0.018148813
-0.010522698
0.040718712
0.075386621
0.065089002
0.051014464
0.018367801
-0.023849295
0.038458046
0.046665713
-0.054370169
-0.021493046
0.002587731
0.074051686
-0.057841584
0.033252906
0.057730604
-0.016879896
-0.048870686
-0.036688723
-0.055160843
-0.078285336
0.062501527
-0.00039333839
0.077182949
0.077387661
-0.050065868
-0.007886407
0.029940698
0.046558753
0.077144794
0.047996741
0.031014636
0.087333754
0.1006998
-0.045842115
0.03070985
0.10887055
-0.051597584
-0.11801562
-0.033039976
0.052001316
-0.17220098
-0.0049808756
-0.013880419
0.059676234
0.049210489
-0.062373109
0.046432387
-0.064245544
0.0148338
0.12017235
-0.016485021
-0.047970016
0.020196533
0.068739511
-0.068127505
-0.054265715
0.077963106
-0.068414524
-0.055579323
0.053301588
0.0047825226
-0.035564557
0.076565765
-0.10999303
-0.014309516
0.037792433
-0.02540119
-0.034491919
-0.03934725
0.062435813
0.040102899
-0.13099122
-0.14399081
-0.13664857
0.020643806
-0.079908028
-0.05281553
0.0075677685
-0.027540321
-0.0074644336
0.019372035
-0.074934795
-0.12430962
0.064300932
-0.11394751
-0.071539611
-0.0073350221
-0.0018767144
0.040323138
0.11612483
0.038312528
0.0088610845
0.022494324
-0.078430705
-0.10611112
0.031365026
-0.061283913
0.012717747
-0.079218321
-0.045977142
0.0053363931
0.026580079
0.07024347
0.019942837
0.074689716
-0.20119503
0.012258116
-0.011423013
-0.0235458
0.077861279
0.056481328
0.0027637195
0.0033101083
0.029443536
-0.071693406
-0.084547959
-0.11688914
0.030701438
0.026263302
-0.065794371
-0.016879007
0.081092879
-0.07013499
0.089857012
-0.047438215
0.0067049102
-0.16198593
-0.021229327
0.036332723
-0.041852828
0.049151491
0.053890347
-0.22188811
-0.0017787541
-0.025612187
-0.15320633
-0.12408487
-0.10686427
-0.032515321
-0.1203658
-0.24354444
-0.0464123
0.16292058
0.14963026
-0.019552134
0.10003702
0.081466459
-0.066201523
-0.017303625
-0.0074221483
0.040482778
0.14914688
0.19800197
-0.23301376
0.1423528
-0.011218362
0.0050698142
-0.064771503
0.013928359
0.0067779324
-0.014159418
-0.19029276
-0.043160416
0.078132659
0.10139649
-0.035084687
0.067122974
0.05198279
-0.097871274
0.011234079
-0.04283246
-0.093809582
0.097215131
0.04777208
-0.19357754
0.082270421
0.09335994
0.068685293
-0.056150965
-0.039874151
0.014264382
-0.086259864
-0.087203555
-0.059312597
0.034992792
0.16382228
0.031083595
0.072606064
0.087134987
-0.17484678
0.029658845
-0.040519152
-0.068826824
0.0038903409
-0.045567706
0.046601161
-0.048506614
0.053752847
0.059187688
0.0097196773
-0.038170494
0.058885854
-0.066979647
-0.011970689
0.075248934
-0.087579623
0.080244407
0.034236431
-0.071054272
0.013147987
-0.26563019
0.0041100648
0.0088159293
-0.049025021
0.023221839
-0.083545931
0.086246409
0.01593771
-0.0058657741
0.070298232
0.0043786387
-0.026489886
0.040162973
0.0195357
0.061299983
-0.0077554057
-0.15082327
-0.0065846052
0.051372338
-0.015765691
-0.034777787
-0.069202304
0.04623951
0.047370665
-0.050459377
-0.019073993
-0.096560113
0.035055693
0.040795501
-0.014603242
0.075002663
-0.014563976
-0.014953354
-0.056498576
-0.020471288
-0.0078330413
0.064444475
-0.051666833
-0.016667837
0.055109456
0.011080152
0.056545787
-0.069728844
0.0082570529
-0.087070785
0.10854585
0.09438514
-0.04769966
0.044646882
0.11198946
-0.012615123
0.069930911
0.022897065
-0.002772555
-0.080545977
0.028136
0.023507299
0.029169548
-0.031898625
-0.018886931
0.089776933
-0.042390712
0.005229773
0.0054505505
0.037815318
0.007220068
0.080154367
0.031982195
-0.072877727
0.037709396
0.20047976
0.035982691
0.076585464
0.053318482
-0.02943952
-0.0081541995
0.013421304
0.1157508
-0.016141957
-0.028518936
0.056016199
0.028228177
-0.0057258219
-0.023018138
0.01535326
0.0263096
0.048534825
0.03687134
-0.0046922951
0.028552553
0.069508679
-0.037634242
-0.096808292
-0.070223406
-0.10289573
-0.096940629
-0.093059011
-0.18431091
-0.09854468
0.038849454
0.17423481
0.11431229
-0.15221833
-0.048521589
0.11900269
0.06506335
-0.12905924
-0.090549521
-0.053151704
0.10348897
0.07372085
0.038052093
-0.071556881
0.27733171
0.099081203
-0.004967534
-0.072596259
0.28095737
0.0069282963
-0.032486886
0.17781815
-0.17095158
-0.036362767
0.16615714
-0.045798421
-0.17497875
0.1311359
-0.057080053
-0.10643928
0.051123884
0.084069207
-0.26021329
0.037802204
-0.22564723
0.15321955
0.19598645
0.10374074
-0.036276001
0.049345482
0.073016465
-0.013518805
0.14112981
-0.083331868
-0.19971314
0.099471241
-0.11906801
-0.17673463
0.049352594
0.054856163
-0.00013104
0.070354328
-0.15239124
-0.16476272
-0.029283322
-0.28648183
-0.1842507
-0.013764936
-0.17808111
0.09347415
-0.095473796
-0.21420491
-0.30260456
0.025765205
0.17476767
-0.037382025
-0.10905703
0.018956384
0.14975362
0.014648888
-0.13407835
-0.090133555
0.099626243
0.053023767
0.025358561
-0.046731424
-0.22578056
-0.023778146
0.19005987
0.081966139
0.098471507
-0.12433721
-0.32227236
-0.21473664
-0.00063668413
0.1190042
0.15835327
-0.15570094
0.10979892
-0.025884358
0.21174543
0.044320974
-0.14212635
-0.043130107
-0.06186524
-0.1298117
0.022241857
0.17089646
0.099238195
0.23292106
0.41802588
-0.0087046968
-0.069738537
0.096167907
-0.19850288
0.1018686
-0.31322026
-0.37257546
-0.006252957
-0.15449356
-0.3442083
0.69733846
0.24732701
-0.14588763
-0.16907004
-0.21226583
-0.19613151
0.041141219
0.24359189
-0.11029604
-0.10370716
0.20168346
0.0070328149
-0.085841909
0.15783404
-0.29930052
0.016718164
-0.056443866
0.19343938
-0.070820451
-0.063480511
0.0067990799
0.31665882
0.11016462
-0.13638157
0.032538947
-0.20938499
-0.18441132
0.15460347
0.1108968
-0.18728024
-0.023110336
0.1620422
0.23691826
-0.023217853
0.21753915
-0.15657839
-0.10391745
-0.029859614
0.523799
-0.14247082
0.22951241
0.032714047
0.08446914
-0.0017069129
-0.15606609
-0.10715812
-0.2045045
-0.16816463
0.059755616
0.068506218
0.039135274
0.090102404
0.025400538
0.16563529
0.11851687
0.061081741
0.13875812
0.031556573
-0.30664816
-0.046657424
0.092746399
-0.12998225
-0.22938974
0.064145252
0.15943405
-0.12772501
-0.1035307
-0.19837466
-0.19331047
0.16456777
-0.010489693
-0.080316737
0.048728798
0.15224934
-0.012783627
0.021952249
0.073779993
0.22934319
-0.076765902
-0.27286202
-0.23135404
0.072678812
-0.057057317
-0.24260674
0.21535724
-0.0025003559
-0.16057546
-0.052671254
-0.19801861
-0.10516876
0.042345636
0.095611386
-0.15114354
-0.019341597
0.16094415
0.30896676
-0.10948062
0.063165285
-0.15397021
-0.21348828
0.19050859
0.092281058
0.042301916
0.1179724
0.079209648
0.21562566
-0.10897587
0.010523492
0.16515338
-0.11401013
0.21701865
-0.034677956
0.039982442
-0.036586359
-0.045501214
0.023134457
0.23206246
-0.013636692
-0.081397064
-0.1184687
-0.046279572
0.15048693
0.031603973
-0.072097622
-0.10764473
0.027373619
0.30084381
0.13735785
-0.083758175
-0.027192153
-0.12878579
0.047586016
-0.0087825917
-0.062730581
-0.04484633
0.016553041
-0.0060657263
0.069481567
0.10172559
0.053255372
0.00010531256
0.13059747
-0.088220268
-0.16149789
-0.0047233137
-0.22775836
0.0075826198
0.079097331
0.25206894
0.08625862
-0.15182827
-0.1785883
-0.03620325
-0.060177423
-0.029102957
-0.16321647
-0.16744474
0.018217277
0.16636141
-0.13799082
-0.057415228
0.0059315171
-0.090120599
0.078239925
-0.040566269
-0.13852625
0.032224633
0.0024722659
-0.16173917
-0.02417619
0.052489091
-0.16738856
-0.032652371
0.0066845468
-0.046155784
-0.12909174
-0.17650904
-0.15371057
-0.13692051
0.20163558
-0.15274146
-0.31690678
-0.1229495
-0.17156135
0.21063948
0.23890647
-0.11315847
0.19298328
0.13539609
-0.058766201
0.046928257
0.01265206
0.034474295
0.098888904
0.15765795
-0.17667396
-0.039538637
-0.052362803
0.022231087
-0.10758211
-0.099263526
-0.058008742
-0.0049541299
-0.14574282
0.047750723
-0.086372256
0.03422166
-0.06110996
0.055204771
0.071783058
0.06505166
0.068513468
-0.0075092805
0.070535168
0.084880121
0.026849926
0.057780653
-0.056492072
0.048178516
-0.077048898
0.0019267645
-0.10838133
-0.081986591
-0.058049154
-0.0093988152
-0.0069268369
-0.17329317
-0.20261908
-0.036045991
-0.061376255
0.062855221
0.16879989
0.066989191
-0.010872716
0.00011102414
0.018218007
-0.075254656
-0.0095565841
-0.092260353
-0.19369921
-0.21731353
-0.15831113
0.032350019
-0.24919912
-0.19690214
0.12787554
-0.025008187
0.11251117
-0.026247565
-0.2112381
0.053206839
0.17448844
-0.1156074
-0.13504289
-0.16163327
-0.22069207
0.053604364
0.1605452
-0.022784078
0.0042697443
0.18106999
-0.016136581
0.027667383
-0.14516082
0.20099868
0.35267401
0.00060250005
0.079746574
-0.092501618
-0.19419067
0.15634251
0.094495483
-0.035544578
0.15456039
-0.020793477
0.11182566
-0.17758517
-0.085045718
0.10350074
0.026563009
-0.054539453
-0.024146196
0.15914799
0.16401514
-0.10792848
-0.087865353
0.01481973
0.24623543
-0.079843678
-0.040584378
-0.0089740297
-0.062665187
6.9833291e-06
0.046723183
-0.047450375
0.055106752
0.13255131
-0.17122477
0.070328802
0.0064411657
0.042805925
-0.21770579
0.10132597
-0.011412359
-0.091336198
-0.18207625
0.01352639
0.11895909
0.13168928
0.067691043
-0.13864923
-0.032042075
-0.00034150208
-0.13879049
-0.032157488
-0.12727278
-0.24110986
0.091858819
-0.0053889169
0.059423827
0.025872923
0.14809875
-0.078920648
0.21031103
0.26881859
0.20515315
0.015923696
0.015042437
-0.013405505
0.051631782
0.057608876
-0.18964708
-0.1627389
0.010134818
-0.059226725
0.077878557
0.36912996
-0.012627991
0.13519193
0.10316212
0.24275962
0.022109812
0.40942964
-0.17551111
-0.20448947
-0.23842564
0.051519986
0.098359615
-0.28399897
-0.17498699
0.33173218
-0.081986703
0.10061687
-0.078917794
-0.26191065
-0.18205772
0.27206701
-0.10771405
-0.17246398
0.085876621
-0.065590262
0.16106103
0.30784667
0.30572563
-0.35793591
0.070661202
0.39277062
0.64133179
0.033253171
-0.0052968226
-0.085214362
0.21485427
0.027620342
-0.33095643
-0.21482152
-0.069715366
-0.19765249
-0.046943303
-0.26352397
0.48918712
0.40075412
-0.034130245
-0.070344083
-0.31810024
0.266974
-0.23651394
-0.02473731
-0.11803532
-0.2534363
0.011008824
-0.35313979
-0.13837755
0.16556206
-0.077763051
-0.38479242
-0.27199244
-0.091208801
-0.048365518
-0.21166123
0.51279783
0.084323294
0.10001146
0.061738271
-0.0496433
-0.51054198
0.15704069
-0.054350872
-0.20674685
-0.061601482
-0.057584893
-0.22290413
-0.21248478
-0.21062532
0.42676076
-0.14744945
-0.12580383
-0.089922361
-0.1796795
-0.23346782
0.021712536
-0.25591969
-0.20809689
-0.39663097
-0.097801328
-0.06203679
-0.15893619
0.10924967
0.12426558
0.08087901
0.075772353
0.12639914
-0.14758769
0.054043874
0.078788519
0.083601147
0.23473276
-0.35982174
-0.18520334
-0.11353467
-0.026289331
-0.037528377
-0.27421796
0.071344502
0.048578165
-0.084026739
0.13017327
-0.41518366
0.038903568
-0.023855777
-0.043747518
-0.15643471
-0.26715866
0.090677381
-0.017023435
-0.037969988
-0.040099382
-0.14425366
0.017083116
0.10575524
-0.33716697
0.17807347
-0.0753446
-0.050056119
-0.2096137
-0.062389936
-0.10364603
-0.14750898
-0.015206026
-0.059443697
-0.024954304
0.0308326
-0.10361566
-0.30170205
0.0637943
-0.10407575
-0.11971072
0.032909438
0.055658009
0.089839704
0.080839254
-0.19494544
0.098366648
-0.052519355
-0.19452658
-0.073443018
0.063685805
0.021685213
0.22518839
-0.048731443
-0.1171845
0.19434337
-0.03504654
-0.023496976
0.059278015
-0.056723978
0.087191701
0.1250674
-0.056622263
-0.036773045
-0.20716204
-0.080988266
0.023007555
-0.029181842
0.20554399
0.061973363
0.21986975
0.079372913
-0.0081429528
0.1462031
-0.16764474
-0.016676491
0.14151499
0.22012533
0.042809889
0.20641829
-0.2172879
0.11876411
0.22839084
-0.22124241
-0.13741876
-0.13936551
0.0010657604
0.27853245
-0.24405497
-0.1471222
-0.047206633
0.20160057
-0.057951882
-0.17193735
-0.087241054
-0.29736209
-0.16940881
0.12010148
0.058214355
0.018309919
0.081130244
-0.11109368
-0.076766074
0.0058946759
-0.16175479
-0.017885512
-0.04560104
0.14674219
0.014601415
-0.065380789
0.050380047
-0.2342079
0.062896952
-0.15246676
0.00099055702
0.011323147
-0.023830729
-0.13726905
0.0069496557
0.16542636
-0.1127164
-0.02167711
-0.16519593
0.11482314
-0.028073765
-0.16007769
-0.076515101
0.09162394
0.12216515
0.11608229
-0.070065841
-0.05011962
-0.28367162
-0.11817594
-0.21591358
0.080816723
-0.12544635
0.061362114
-0.11963224
-0.025642773
0.21762817
-0.00018342608
0.076864697
-0.17648511
0.2507852
0.14149529
-0.095540971
-0.067096613
-0.021857062
-0.018338289
0.25590155
-0.045720633
-0.046072856
-0.25927743
-0.17671296
-0.11165176
0.01470175
-0.033563655
-0.11785763
-0.13421124
-0.16148913
-0.036938112
0.017395437
0.2303226
-0.092007168
0.072203167
0.074686415
-0.26830587
0.020842845
-0.11630106
0.07185477
0.12536551
-0.11442638
0.014001146
0.0042417245
-0.034104913
0.21244119
-0.0021192317
0.03279471
-0.39840159
-0.20680618
0.084960468
-0.12623397
-0.37487397
-0.47787422
-0.021272654
-0.057846189
-0.16144985
-0.3533186
-0.27384892
0.069086395
0.14324847
-0.14629744
0.066823117
0.020587409
-0.16930009
-0.034477495
-0.27985802
0.28845558
0.2244682
-0.080586672
-0.10104208
-0.20820321
0.36142901
0.255319
0.11811867
-0.32324383
0.18719855
0.07486251
-0.27997842
0.012817685
0.067663856
0.2814728
0.33265519
-0.069358818
-0.20056567
-0.43362421
-0.16619225
-0.14682846
0.082796872
-0.0068739029
-0.16410463
-0.2586987
-0.14260881
0.39465088
-0.0068986146
0.33911961
-0.40384281
0.30547076
0.37415338
-0.2407618
-0.2191855
-0.16472852
-0.15673232
0.59147447
-0.26009431
-0.1721839
-0.23173118
-0.25918809
0.010760549
-0.11891439
-0.24419847
-0.42553392
-0.25139284
-0.0039787767
-0.14941606
-0.17982739
-0.37122595
-0.12234259
-0.21158703
-0.32364041
-0.5025112
-0.018201569
0.041969694
0.043534625
-0.090499774
-0.020742362
0.21549712
-0.2929264
0.21971403
0.058395967
0.024758182
0.22968428
-0.26516661
-0.18262115
-0.36499706
-0.14699988
0.026825214
-0.14079387
-0.1368781
0.06995444
-0.11877503
0.16811103
0.089204483
-0.12715273
0.054601673
-0.10649381
-0.20621672
0.017426264
-0.18011215
-0.23971871
-0.35946536
0.040619586
0.02406103
-0.17807017
-0.18295011
0.059025023
0.086926758
0.018414075
-0.11071792
-0.22451332
0.21683998
0.016617088
0.082588889
-0.010746366
0.024050323
0.060513224
0.052027177
-0.13574822
-0.095014408
-0.16908547
-0.12049979
-0.16036595
-0.070896037
-0.17616157
0.043553863
-0.15260193
-0.018775465
-0.11161374
0.035020549
0.05957092
-0.0366573
0.10877538
0.084079795
-0.25967357
-0.042309348
0.202218
0.16601019
-0.059115469
0.041186519
-0.066834763
-0.1732467
0.065875918
0.069829665
0.062180247
0.0075917887
-0.034045253
-0.082197987
0.013924804
0.13291569
-0.075656272
-0.011942687
-0.35530815
0.14551391
0.0042064027
-0.22370738
-0.072254851
0.067056544
-0.047341876
-0.093542501
-0.056860864
-0.19996181
0.10699382
0.00016603476
-0.06330362
-0.098250829
-0.11373606
0.05554663
-0.14173391
-0.022169989
0.082896464
0.062190484
0.10032231
-0.1814869
-0.012881951
-0.014546569
0.12785068
-0.19471903
-0.076242968
-0.093840405
0.010000926
-0.079857104
-0.2369456
-0.021545561
-0.089944646
0.072331987
-0.14325252
0.0023522314
-0.087757327
-0.15740739
0.0015780607
-0.19759031
-0.073861547
0.06825842
-0.050988805
-0.032682907
0.060917426
0.0023233055
-0.14863551
0.013627728
-0.011927065
-0.07033921
-0.10989419
-0.091621585
0.01416159
0.035063237
-0.095535718
-0.20075443
0.073292375
-0.16288882
-0.14573559
-0.0506627
-0.08649046
0.20568685
-0.087553345
0.092863917
0.026843378
0.15213831
-0.047610458
-0.047516987
-0.18225411
0.43161488
0.052176286
0.21505328
-0.10108562
0.0079423273
0.46968174
0.21213067
-0.016942808
0.035197593
0.1599524
-0.13081059
0.26092342
0.21654135
-0.18030024
-0.14914298
0.060244408
-0.23825802
0.091391899
0.058127645
-0.12237199
0.093516469
0.40804976
-0.11493782
-0.13720892
0.071255416
-0.58097088
0.03669294
0.010327692
-0.044124085
0.2472063
0.13680936
-0.11233442
-0.092201255
0.084008113
-0.26676968
-0.27931368
0.3692829
-0.024115685
0.62157613
-0.35104901
0.050356921
-0.11524863
0.44662002
0.07956396
0.085441142
0.036009792
-0.15842071
-0.042903099
0.46113721
0.11679199
0.14183149
-0.016048584
-0.13220561
0.47675994
-0.2271079
-0.3945187
-0.50369847
-0.0024243561
0.27604666
0.0057848832
-0.43794787
-0.20805706
0.26104221
0.55157089
-0.60658574
0.15516059
0.17630009
-0.1920889
-0.17253847
-0.54101574
0.077948749
-0.060634863
0.63351333
-0.22310652
0.19099453
-0.030058058
-0.26068345
-0.092997357
-0.13873918
0.50490367
0.59754479
-0.13740382
-0.11516982
0.013137166
0.35948095
0.32912928
0.1388755
0.21660395
-0.011010303
0.38735652
0.20240566
0.22004972
-0.042097658
-0.19051611
0.28446093
0.53348142
-0.72480649
0.21212906
-0.1421085
-0.31071505
-0.15091413
-0.30766901
0.63501281
-0.11886769
0.16498338
-0.25616571
-0.263376
0.14582019
-0.23389643
0.077985734
-0.044136565
-0.85696042
-0.26187971
-0.38336837
-0.23224327
0.25226796
0.24385986
-0.002017475
0.27642497
0.98977512
-0.59531045
0.20335168
0.28736445
0.45283589
0.20576112
-0.24322963
0.12777476
0.30705473
0.015851006
-0.032889217
-0.045154709
0.086179219
-0.082354002
-0.24098386
-0.10335113
-0.62295699
0.71693742
-0.049469184
0.22862674
0.84473419
0.39951298
-0.21525292
0.46018434
0.38069016
-0.1578791
-0.072246104
-0.76088297
0.72124016
0.15770243
-0.075199381
-0.36681029
1.6618643
0.5999949
0.32385349
-0.12826663
-0.30427742
-1.2120513
0.52324456
0.28688249
-0.39761144
0.17727028
0.13589446
-0.52158606
-0.022807237
0.039063375
0.12323412
-0.22543192
-0.26583928
0.33843046
-0.0040178429
0.40720758
-0.28582051
-0.16207369
-0.31261173
-0.26456082
-0.19325283
-0.3047421
0.18258886
0.7047022
-0.023810523
0.24141036
0.66670066
0.40178719
-0.65327674
-0.099689841
0.57143992
0.18214402
0.23889731
-0.38986534
0.32911658
0.20112331
-0.15534997
-0.53034657
0.4874298
0.17731678
0.082151696
0.13155255
0.13528171
-0.6893729
0.520338
0.42823043
-0.10471423
-0.037264772
-0.2801871
-0.19231482
-0.22240436
0.15216702
-0.14629598
-0.18973389
-0.3042455
0.89806831
0.11007842
0.23632231
-0.030573931
-0.23660162
0.06814377
-0.21214679
-0.49322951
-0.25350723
0.27909675
0.60225332
0.008921572
-0.053056423
0.39054161
-0.24182743
0.089927673
-0.14324556
0.51505148
0.017578969
0.23613299
0.23691915
0.36456919
0.48632181
-0.14374973
-0.11036112
0.05630121
0.083991431
-0.15348814
0.17475466
-0.18894145
0.15591283
0.44195104
0.44780391
0.12308365
-0.0042360784
-0.40121526
-0.089901656
-0.21940844
0.48590776
0.19643167
-0.37366021
-0.17696929
0.56808472
0.14559652
-0.07011167
0.28601894
-0.22962733
0.055128142
-0.34613934
-0.048861284
-0.24392861
-0.087561004
0.36139515
0.225849
0.23404364
0.31833968
-0.10391282
-0.16382018
-0.36764011
0.45435885
-0.00270333
-0.10499935
-0.010035604
0.31610969
0.087810829
-0.40821695
-0.19341508
-0.22201382
0.35001737
-0.055866029
-0.1360718
0.37289816
0.23609877
0.076140232
0.17701142
-0.16511331
0.0038930809
-0.29848871
0.066789068
-0.015167256
0.24320495
0.1193777
-0.46785694
-0.22403476
0.54600286
-0.21967626
-0.44802213
0.29024363
-0.39890245
0.34402558
-0.1466064
-0.10630742
0.28651673
-0.084965385
-0.20047663
-0.12852927
-0.0034137599
0.38192987
0.12022907
-0.16502534
0.047527507
-0.26426947
-0.040957026
-0.022398779
0.086583696
-0.26417589
-0.16719262
-0.074854441
0.14975548
0.28944024
-0.018985743
0.20812492
0.10771161
0.10547724
-0.25155181
-0.26192042
-0.22687888
-0.26525387
0.10608384
-0.16171853
-0.25524625
0.16983455
-0.0756317
0.019077772
-0.070215859
0.1577239
0.069683231
-0.2554107
-0.29141808
-0.16943964
-0.0045291525
0.14989838
-0.14659704
0.26541477
-0.0093875965
0.026489912
-0.09050484
-0.62418121
-0.033813126
0.39300609
-0.3210254
-0.01587121
0.23131706
-0.071223453
0.6184746
0.045949437
0.20930935
-0.56774402
0.3440229
0.060790885
0.0042496291
0.29416338
0.25359169
0.43488982
0.20783976
0.059762504
-0.52362978
-0.46657655
0.083016388
-0.39144692
0.091919199
0.12692264
0.031005336
-0.22958086
-0.56965142
0.17037998
0.077901132
-0.030708104
-0.14961228
-0.41263884
0.033650447
-0.0029685022
0.061426155
-0.12714121
-0.23412828
0.22363037
0.017044971
0.67132324
-0.29719269
-0.99085343
0.23898765
0.064646974
0.11810163
-0.23492938
0.36017501
0.24151418
0.27748996
0.14724433
-0.11210272
-0.20117395
0.17215012
-0.27071616
-0.13397902
-0.093820572
0.47903118
0.72097957
0.33689445
0.32001567
-0.006732034
-0.54334068
0.73182946
-0.41894808
-0.60461181
-0.56271595
0.56870019
-0.17444552
-0.96106821
-0.012423763
-0.34413758
0.088621154
-0.38054535
-0.55656475
0.20025787
0.31726837
-0.62832505
-0.75172091
-0.43327412
0.10334606
-0.053744428
0.64418352
-0.68994671
-0.76995116
0.3525902
-0.71635973
-0.35879806
-0.021290045
0.35825244
1.1839823
-0.85826021
0.34962723
0.36525998
-0.66917223
0.34879789
0.023169763
-0.026378911
-1.2585807
0.62989181
1.1528286
